207 64
203 0.87646395 -0.7020432 0.4107856 -0.51984 -0.32058635 -0.69785327 -0.05435005 1.4876852 -0.5202271 -0.50488603 -0.45749 -0.21271789 -1.5112832 0.065131515 -0.65926385 0.5590966 1.3095728 -0.31412357 1.2455951 0.3489594 1.385006 1.0359265 1.935061 -0.4455282 0.3870153 -0.38345113 1.1685685 -0.49955618 -0.75441265 -0.77050006 -0.5605233 0.36471257 -0.3883626 1.3706329 -0.82284576 -1.6675119 2.3105211 -0.51443034 0.4877623 -0.4640491 -0.86705095 -0.54365003 -0.07312886 -0.2219095 0.50890946 0.18237336 -0.84973335 -0.21235362 0.7492756 0.93556505 -0.8965243 -0.4713365 -0.5917217 1.6325519 0.3979086 0.9735191 -0.28751203 -0.9021022 -0.5520601 1.2187132 -0.41598475 -0.849468 0.6193689 -0.3405463
181 -0.15328193 -0.03340158 -0.46977752 0.11372564 0.42517936 -0.22580999 0.38422704 -0.74184185 -0.61445606 -0.08924902 0.17762202 -0.74892575 0.49537852 -0.11183791 0.80233485 0.34239534 0.59741765 -0.43935236 -1.3701025 0.8645235 -1.0400573 0.20356819 0.7902331 -1.8003657 -0.46118855 -0.12544346 0.32838684 1.7001104 1.8580459 -0.9379024 1.54974 0.48105556 -0.26987538 0.12291471 -0.60046524 -1.2540486 0.193571 0.19905539 -0.19236775 0.18026407 -0.4828732 -0.83091336 1.0541744 1.3856211 2.6335318 1.3461236 1.4029654 -0.2074335 -0.00968157 1.4774954 -0.19712101 -0.3826226 0.74454594 1.561012 0.27367988 1.1664497 -0.6281369 0.02115777 -0.21322331 -0.25604904 -0.95575964 -1.2266744 0.78470576 -0.33139575
126 -0.30321118 -0.64043784 0.29083684 0.19841059 -1.1162683 -0.31405777 0.3854533 0.13803655 -1.0360017 -0.42567047 -0.23319308 -1.7925583 -1.3988917 -0.015355754 0.06980618 1.4745612 0.295047 0.104250506 -0.22632143 1.1297541 0.82701856 0.10760406 1.8358599 -0.62318254 1.2684408 -0.19094646 0.7622755 0.7224909 0.19211467 -0.40242133 -0.94154453 -0.5070947 0.6682472 -1.4663817 -2.4545326 -0.9500302 2.5384088 0.5836039 0.5920741 -1.0428046 -0.07626359 -0.41326606 -0.13321626 -0.500048 2.1123042 0.56793886 0.17917022 -1.61852 0.8514596 1.9770842 -2.6656423 0.24165033 0.2102003 2.2809167 -0.5872406 0.78341216 -1.1677344 -1.3894852 0.3895196 0.0894184 0.00838349 -0.7797346 0.8509286 -1.850974
182 -0.9121131 -0.3768734 -1.0831223 -0.82390136 0.6253029 -0.8719088 -0.2865007 -0.30903873 -0.26781 -0.16908216 -0.15741567 -0.05630297 -0.054581944 0.22578467 0.34389743 0.4001775 0.38416123 0.41553995 0.30526802 1.3706863 -1.0370201 -0.033211816 1.076056 -1.1053827 2.3782103 0.6380521 -0.34508333 0.80778563 0.9357613 0.06302486 0.4544437 0.4196367 -0.2106267 -0.769393 -1.1783258 -0.23839408 1.7315617 0.41927227 1.2689128 0.06363192 0.07524552 -0.0096072415 0.8538308 2.3478506 3.100399 -0.2533494 0.57153124 -0.033577535 1.3465222 1.7727134 0.91741776 0.133355 0.20107941 1.827292 -0.019105278 2.1442304 -0.034895778 -0.16136415 -0.5551931 -0.38193646 -1.1647503 -0.8759132 -0.19867806 -0.6377366
146 -0.3954091 0.068655275 -0.33842564 -0.009787512 0.19798826 -0.33548653 0.2996714 -0.105553515 -0.15319891 -0.21002837 0.23223023 -0.22330981 0.21504718 -0.1566687 0.13161285 -0.0036063758 0.075983636 -0.11829329 -0.5379848 0.6360268 -0.3462665 -0.1765665 0.37716743 -0.42227766 0.0110116815 -0.05241712 -0.09215763 0.512948 0.43572155 -0.009192668 0.28035384 0.31620088 -0.19496149 -0.24547358 -0.45009336 -0.3611717 0.46527952 0.06956302 0.15330365 0.1990939 -0.16944982 -0.14571835 0.22660981 0.7253189 0.8885233 0.55047476 0.33812833 -0.012710451 0.43453777 0.5782249 0.0985108 -0.44436306 0.24498962 0.4580522 0.17939134 0.66843593 -0.23432603 0.05381019 0.031501632 -0.12928353 -0.3806275 -0.32370794 0.09014485 -0.07603911
183 0.25726506 0.060667224 0.31865287 -0.50848657 -0.3008622 -0.8306447 -0.06859762 0.31581086 0.5217461 -0.10720129 0.0069703558 0.44321176 -0.634429 0.23426534 0.43460497 0.28076166 0.041073352 0.099382624 0.18630289 0.71270406 0.5902592 0.21988936 0.6135482 -0.6776785 0.40135843 -0.21495558 -0.14198312 -0.27177662 -0.17152631 0.17708275 -0.08465901 0.4995194 -0.15938462 0.40153074 -0.42856845 -0.7079864 0.6437743 0.21911605 0.19597661 -0.2844151 -0.14187777 -0.47280622 0.0043826494 -0.24623819 0.07505113 0.17410164 -0.1534449 -0.123509295 -0.029272733 0.75697523 -0.5605497 -0.6137377 -0.25219962 0.562908 0.17643224 0.12113427 0.014503569 -0.3039389 -0.16706637 -0.43529615 -0.13467748 -0.038315214 0.049058888 -0.8876466
65 -0.12089298 -0.6267246 -0.3218636 -0.2640646 0.6358461 -0.30652255 0.39669663 -0.17202148 0.3479781 0.39244413 -0.1767215 0.023755025 -0.43768978 -0.18494198 0.14868362 0.57810783 -0.18148802 0.55102926 0.27089468 0.03990411 0.3570196 0.47108606 0.677163 0.06293172 0.0771477 0.45680004 0.154884 -0.1076068 -0.16005236 -0.032337118 -0.054719146 -0.06785836 -0.741518 0.54950184 0.34529778 -0.38535932 0.1979408 0.29841185 0.54009205 0.013944633 -0.077546656 -0.018810216 0.15129216 -0.5223339 0.40682232 0.71316314 -0.12677044 -0.2980254 0.24116907 0.49918213 -0.31244954 -0.7893234 -0.13720363 0.6932558 0.15226758 0.92195207 -0.09789511 -0.56435084 0.033610303 -0.24804395 0.104567535 0.21201535 0.14494015 -0.5093731
60 0.016283056 -0.0026894659 -0.46024206 -0.060486738 0.19935037 -0.24841948 0.3372558 -0.07823428 -0.40164196 -0.0693031 0.12810104 -0.08194837 0.20955202 0.016291065 -0.0222647 0.2000783 0.14865088 -0.20913185 -0.4140454 0.6938531 -0.46399197 -0.17632893 0.28542534 -0.46040523 0.14446764 0.013220542 0.08498043 0.3813489 0.720256 -0.12442206 0.39628556 0.29443267 -0.18107817 -0.29103813 -0.21930934 -0.26615188 0.39923033 -0.068371 0.13463628 0.14039038 -0.023982806 -0.09454562 0.19147378 0.686907 0.81349576 0.23974417 0.18706329 -0.015615331 0.32385316 0.53012145 0.27449492 -0.25277844 -0.060155068 0.31161493 0.121329 0.53258455 -0.19269396 -0.076150425 0.06409635 0.04014612 -0.4375086 -0.14261612 0.18629754 -0.2869193
147 -0.14996415 0.28798008 -0.23958834 -0.26345053 0.30064926 -0.29811612 -0.16746263 0.06742029 0.042535506 0.020091472 -0.33527634 -0.15452306 -0.72579587 -0.39214522 -0.107876115 0.061893083 0.79574466 -0.027362254 0.121818066 0.6353518 0.18217742 0.63154066 0.79728466 -0.5152032 0.02275757 -0.14467873 0.15420926 -0.40646255 -0.36003578 -0.038200047 -0.5260063 0.48318747 -0.5565725 0.44447598 -0.051915184 -0.069845766 0.19817404 0.056434322 0.2976862 -0.77105063 0.00047003228 -0.011446443 0.43472087 -0.26396507 0.17437267 0.23639287 -0.33851373 0.07424025 0.348602 0.27102366 -0.4046659 -0.3589787 0.06729835 0.23994766 0.03070556 0.7103499 0.1722346 0.0745339 0.094972886 -0.023280963 -0.19697094 -0.054526195 -0.042973228 -0.7068704
81 -0.19968891 0.15642804 -0.22327891 -0.32726672 0.102756105 -0.3488615 0.39667875 -0.07571869 -0.2874113 0.02624712 0.15479676 -0.09808533 0.13730842 0.011985058 0.050832637 0.0019156112 0.07008525 -0.13594829 -0.49272642 0.70063376 -0.28609464 -0.19855727 0.371354 -0.44703832 0.2330158 0.12905416 0.08777492 0.49982095 0.49539897 -0.17262858 0.43562442 0.32892743 -0.0729318 -0.37737876 -0.12975702 -0.11981981 0.4335938 -0.05818873 0.15008011 0.10164244 -0.07996358 -0.14708789 0.27935597 0.72080636 0.9568161 0.2940097 0.19606547 0.07528104 0.31861585 0.5828058 0.23875201 -0.28504616 -0.1571812 0.4310542 0.12706578 0.6714632 -0.19781184 0.15513177 0.0655765 -0.0045398218 -0.37595943 -0.22366236 0.17187503 -0.21325485
45 0.13036746 -0.4678546 0.3362078 -0.2511648 -0.24035074 -0.19197348 -0.28271613 0.650336 -0.041470177 -0.25354263 -0.011751691 -0.3416269 -0.68844795 0.13100192 -0.22586538 0.17316157 0.5091158 -0.10630429 0.27777508 0.012456012 0.6722962 0.59964716 0.87643135 -0.15962374 0.35812077 -0.34494907 0.6894002 -0.27714664 -0.39860573 -0.53113216 -0.24824704 0.22676818 -0.073063806 0.64315826 -0.5665258 -0.9200533 1.131787 -0.3164146 0.20757505 0.02568549 -0.30749032 -0.49619552 -0.13407317 -0.10793858 0.32455358 0.12844764 -0.60959554 0.032597333 0.3898933 0.5381068 -0.68536144 0.13691168 -0.35791394 0.7347008 0.06322051 0.89122933 0.22422476 -0.5878438 -0.45325983 0.8392633 -0.35873294 -0.712636 0.39884448 -0.19844721
82 -0.11500284 0.04376539 -0.257046 -0.044149842 0.2760175 -0.46099666 0.40813437 -0.088726215 -0.4477138 -0.06806054 0.24723907 -0.11123707 0.24033071 -0.09698387 0.120664574 0.14857756 -0.08998345 -0.113520615 -0.55529106 0.61433464 -0.14804585 0.03870294 0.48760796 -0.5383599 0.03324192 0.09574706 -0.023774615 0.42719024 0.60613227 -0.08145163 0.37219876 0.3169421 -0.2144223 -0.5199356 -0.26666522 -0.12762386 0.6559686 0.11899971 0.24184681 0.1668698 -0.37161785 -0.019839289 0.14664215 0.6307785 0.8171082 0.34619144 0.074056596 0.026717307 0.5124001 0.28146473 0.10945122 -0.36455786 -0.04581333 0.36619198 0.22549556 0.5862398 -0.24134292 -0.16145751 0.003737428 0.059560057 -0.39367542 -0.36585674 -0.033692982 -0.070389934
76 0.06123047 0.01746436 -0.2577681 -0.0699811 0.27635 -0.49090555 0.63246375 -0.074012704 -0.41401568 -0.0025040072 0.46932665 0.072929606 0.052675255 -0.06968686 -0.03594158 0.52632034 -0.1915113 -0.24746284 -0.51478535 0.7046391 -0.17382097 0.0313597 0.42156926 -0.3393074 0.006828949 -0.029694708 -0.2581632 0.4780193 0.6879909 -0.22752146 0.38788122 0.32423928 -0.16932671 -0.5890069 -0.16543172 -0.25227168 0.68154675 0.10681094 0.34337255 0.2815914 -0.48135948 -0.20779641 0.11195698 0.654131 0.80608463 0.24113873 -0.15583767 -0.032160077 0.3962698 0.28029633 -0.0407915 -0.5324657 0.04171759 0.40312555 0.29807088 0.3575413 -0.031877138 -0.14414145 -0.06528881 0.31716907 -0.20230862 -0.24605978 -0.13205497 -0.008345298
64 -0.19349511 -0.40302658 -0.36818975 -0.44750938 0.58518547 -0.22523393 0.4709745 -0.06267721 0.31437194 0.34840527 -0.4071687 0.16929583 -0.54963297 -0.08752034 0.23629656 0.51968634 -0.07019625 0.3756911 0.3343814 0.10702966 0.29950404 0.28302035 0.57802266 -0.14734793 -0.0035646022 0.28177497 0.2433774 -0.20344675 -0.028757399 -0.008632938 -0.24965592 -0.09987883 -0.6383368 0.37266567 0.38148552 -0.58053493 0.22715442 0.15948096 0.48449963 -0.07133198 -0.12525284 0.12811269 0.14402921 -0.5084562 0.22538656 0.8133273 -0.19555266 -0.39101502 -0.014281746 0.537926 -0.35716605 -0.4139268 -0.0592935 0.5754081 0.19349864 0.6300591 -0.097948715 -0.47393128 -0.14528604 -0.39130977 -0.043785103 0.0040949155 0.2856017 -0.48183253
63 0.010565609 0.0051309457 -0.3482917 -0.056899868 0.24938482 -0.23908678 0.40872246 -0.09161796 -0.44575113 -0.1481722 0.19879843 -0.084430896 0.21846123 0.01951972 -0.134842 0.20989425 0.087106794 -0.2615951 -0.3982444 0.7646859 -0.44227993 -0.19754623 0.35611647 -0.34517273 0.11964668 0.0654256 0.15452513 0.37453848 0.6851139 -0.03518855 0.3238279 0.31383798 -0.32490447 -0.31945702 -0.20160718 -0.26196668 0.378929 -0.06554984 0.12276681 0.1361837 0.0034123077 -0.14033146 0.2282463 0.73777074 0.8281298 0.20885673 0.19862734 -0.04135074 0.31803554 0.48221642 0.2518575 -0.2663928 -0.011687709 0.26414832 0.04341347 0.56234473 -0.21472953 -0.05236871 -0.020723935 -0.03847455 -0.330629 -0.21626401 0.2187959 -0.29605624
43 -0.23310661 0.0847766 -0.1917478 -0.19368222 0.20744847 -0.42604944 0.4708703 -0.25886613 -0.37668198 -0.060305905 0.23946825 -0.15044263 0.2490845 -0.09579861 0.17622389 0.25456646 -0.2299512 -0.16764918 -0.5881421 0.61437076 -0.006047311 0.092577375 0.31433263 -0.47215122 0.12183452 0.0104145 -0.14463066 0.47424933 0.64289695 -0.23033957 0.47426423 0.19362423 -0.19628306 -0.63675725 -0.21352075 -0.2525397 0.7129864 0.092147 0.19855174 0.27024174 -0.42622933 -0.062858164 0.21395908 0.55057156 0.7480672 0.3075038 0.018224748 -0.05482858 0.69531333 0.3333565 -0.020951187 -0.3772398 -0.026032396 0.45907915 0.27253836 0.64817595 -0.20675129 -0.17864957 0.03487288 0.16679716 -0.39089075 -0.29088408 0.030910505 -0.061959367
30 -0.18477848 -0.47376135 -0.13091464 -0.40843526 0.74022496 -0.28145432 0.29605907 -0.18811287 0.42215097 0.28468332 -0.19521397 0.22722936 -0.47954264 -0.18266131 0.3087935 0.4735279 0.12930217 0.53081024 0.20676729 0.053187262 0.34707147 0.41094536 0.7433125 0.10803259 -0.08654847 0.42141655 0.07932932 -0.34924343 0.015451777 -0.09197825 -0.22505659 -0.027748551 -0.65333587 0.28074205 0.3440659 -0.2858945 0.24232556 0.32687208 0.5397539 0.101779886 0.056190845 -0.14056745 0.10261878 -0.45954084 0.4559125 0.7064653 -0.103075095 -0.3925333 0.14888826 0.43451357 -0.35334462 -0.65898824 -0.11952071 0.5096535 0.25484335 0.7252125 -0.07730922 -0.5655684 0.062273152 -0.22067118 0.14269121 0.017808385 0.25591004 -0.62492716
131 -0.30607715 0.19551055 -0.391868 0.02415288 0.1787048 -0.4165166 0.37448636 -0.2695539 -0.33432066 -0.10416468 0.12954275 -0.024813427 0.22047095 -0.12332921 0.014279231 0.02868272 0.20257878 0.025237931 -0.48935798 0.62138754 -0.37260824 -0.14435723 0.3684019 -0.4945066 0.13977985 -0.005422143 -0.015853666 0.44913974 0.6023263 0.042458206 0.44434646 0.3960228 -0.044810455 -0.2599935 -0.33364987 -0.35994956 0.41175228 -0.15104112 0.21639848 0.19795004 -0.11767912 -0.22043951 0.26332426 0.71058667 0.77793294 0.42611256 0.29588354 -0.24439663 0.38441655 0.5059976 0.12960637 -0.34158012 0.112850584 0.5150543 0.053476196 0.5487997 -0.32188725 0.08314841 0.010116337 -0.27780417 -0.3813396 -0.15833864 0.11032295 -0.20912914
158 -0.3249198 0.10775694 -0.32483244 -0.07355399 0.16631679 -0.37186 0.31784213 -0.18795665 -0.34959555 -0.12406347 0.25256598 -0.01890703 0.1940057 -0.15883082 -0.057829514 -0.018089855 0.1645451 0.05746645 -0.48098728 0.61069816 -0.4506652 -0.1601823 0.31439707 -0.46236065 0.05910558 0.03179802 0.0020785718 0.48103356 0.5332716 0.06789107 0.38522908 0.3373454 -0.1450034 -0.28030947 -0.43056536 -0.3932112 0.34264478 -0.09441226 0.04454928 0.18254706 -0.17749692 -0.22535141 0.29010737 0.58943444 0.8381559 0.43899143 0.3096043 -0.097895324 0.52632266 0.55264 0.09133514 -0.43893254 0.07372168 0.43903562 0.05508337 0.65803987 -0.2707584 0.122978024 0.008414364 -0.2604756 -0.3177117 -0.25626963 0.09711856 -0.1328505
141 -0.09771414 -0.0028767434 -0.4196648 -0.12383434 0.2834266 -0.15508583 0.22745492 -0.3231342 -0.2918004 -0.1897338 0.26869044 -0.20370333 0.19298711 -0.34772524 -0.097126536 0.29626092 0.2941015 -0.33817422 -0.44057482 0.6854051 -0.3549598 0.28407502 0.49275604 -0.39712545 -0.18122533 -0.000478074 -0.055714376 0.47924784 0.75956357 -0.16577701 0.48450673 -0.076209046 -0.21071926 -0.25194526 -0.102316536 -0.25953892 0.44580042 -0.22910249 0.34639233 -0.11913067 0.033617284 -0.040642474 0.18090649 0.778138 0.49447677 -0.038021624 0.074830204 0.1350609 0.04644892 0.4653027 0.20958464 -0.20077568 0.06524377 -0.021090297 -0.14822493 0.19472839 -0.024353176 0.197853 -0.036600307 -0.18716371 -0.4660605 0.07616904 0.29901055 -0.51265347
72 -0.10674019 -0.09364726 -0.21922357 -0.14649634 0.08146661 -0.2452702 0.3618243 -0.34544733 -0.36788425 -0.09332798 0.2681517 -0.37699032 0.17773543 -0.27158657 -0.18606992 0.055039365 0.4250811 -0.33670872 -0.35057306 0.71084756 -0.24715853 0.14591834 0.38865802 -0.42523015 -0.36524948 -0.17034166 0.1839781 0.24960619 0.6579628 -0.058228504 0.5990818 -0.23798797 -0.13978931 -0.1244162 -0.105859056 -0.31453934 0.27519628 -0.25334832 0.33409855 -0.41450688 0.29041573 -0.11578618 0.31368425 0.6676285 0.60782146 -0.06314924 0.17912623 0.24547067 0.08576977 0.4790889 0.31599492 -0.2420203 0.19444457 -0.19394256 -0.11819578 0.1729246 0.08070195 0.25512332 -0.027336035 -0.37470654 -0.5150191 0.13013159 0.44932935 -0.5416014
26 -0.14043601 -1.216965 -0.33100444 -0.05659952 -0.039457656 -0.48695615 1.0513399 0.89370584 -0.88899267 -0.39630187 0.3972945 0.13084087 0.11986997 0.29724827 0.034099586 1.4666486 0.61891484 0.46462032 -0.52472734 2.0240953 1.0498432 0.10716378 2.3313808 0.36003608 1.1369755 -0.3536673 -0.6707766 0.40960863 -0.8638616 0.5798614 1.1530018 1.9756069 -0.61060417 -0.3192064 -0.28262132 -1.2033315 1.0966527 -0.01366186 2.055513 -0.01720176 0.34006947 0.7216958 1.8063337 0.16464454 1.2223887 -0.7309705 0.3694345 0.67333275 0.3058096 1.3246651 -1.3837558 -0.77339417 0.20981859 1.204007 -0.39997593 1.7746512 1.0166615 0.29838076 0.39368057 -0.44552484 -0.13915122 -0.74688834 -0.22246753 -0.42756006
177 0.2852048 -0.073346905 0.4033049 -0.22076668 -0.085962065 -0.48353532 -0.17988089 0.3088435 0.21693832 0.05221992 -0.21001284 0.23069264 -0.3415449 0.013474229 0.3306348 0.18357241 0.29240772 0.25654003 0.15843832 0.23238067 0.29697376 0.13929622 0.68949217 -0.3253677 0.5455239 -0.33631167 0.14624402 -0.4475354 -0.48200718 -0.42200953 -0.10031948 -0.06703034 -0.3235971 0.32991812 -0.424271 -0.4373842 0.64287406 -0.1420485 0.23945041 0.046213496 -0.026262378 -0.28274083 0.120100506 -0.15269719 0.44705892 0.1415836 -0.025790714 0.11433472 -0.27932465 0.34457225 -0.59789884 -0.34775156 -0.20822285 0.5822188 -0.08352553 0.31918722 -0.108642295 -0.46750122 -0.2543916 -0.008209696 0.19816585 -0.31050336 0.32171535 -0.683226
139 0.30361468 -0.3271377 0.03324111 -0.19257744 0.27614385 -0.5387977 -0.35550374 0.044419546 -0.07496563 -0.101470165 -0.27503487 0.13888632 -0.6820117 0.070677385 0.48307684 -0.040996138 0.43301108 -0.10462129 0.1928693 0.21225798 0.34073344 0.2433431 0.6959839 -0.38259572 0.06006558 0.025593579 0.090025105 -0.5636334 -0.19611141 -0.32122117 -0.049854778 0.13741325 -0.6088876 0.4319797 -0.2574149 -0.27716628 0.41679117 -0.24097149 0.33420923 -0.37028354 -0.20537929 0.03781408 -0.2706868 -0.04938059 0.043818817 0.22409774 0.0013410079 0.05930858 0.22812898 0.44902998 -0.21462432 -0.3452748 -0.3924295 0.56969607 0.1356339 0.49619982 -0.13673627 -0.057559464 -0.50882125 -0.37157872 -0.04108588 0.23072611 0.3885984 -0.7892871
129 -0.08869187 0.072837904 0.034571413 -0.3043543 0.26380107 -0.41752636 -0.32590264 0.13938208 0.24429563 0.21447729 -0.2976753 -0.061527643 -0.7237223 -0.19994512 -0.005391686 0.122102655 0.6106354 0.037997387 0.07106141 0.6243908 0.1855676 0.40508497 0.78637487 -0.5406653 -0.08447408 0.076226756 0.064214304 -0.5034178 -0.3399358 -0.21948436 -0.40694693 0.25985816 -0.6903828 0.3087622 -0.105190456 -0.13478462 0.38794935 -0.03425139 0.23417142 -0.4398186 -0.0037955008 -0.088772535 0.19936985 -0.33910647 0.1446109 0.2578813 -0.32422665 0.07409616 0.26563963 0.17436123 -0.16068265 -0.35333717 -0.019782484 0.37039047 0.121289074 0.57962096 0.029395724 0.09352026 -0.19002134 -0.009309808 -0.22081608 -0.046082065 0.17490134 -0.8881487
160 -0.09165278 -0.38647228 -0.22885405 -0.6474508 0.16504364 -0.10502424 0.74868923 -0.2602152 0.28160354 0.13257067 -0.2546555 0.22675554 -0.3859388 -0.3132 -0.017612398 0.4362996 0.53221554 0.21690057 0.21998966 -0.060115974 0.007014102 0.2240434 0.28917947 -0.049893167 -0.52067894 0.03521813 -0.17999372 0.38024974 0.61927766 0.17723781 0.6372831 -0.3471838 -0.34164008 0.25384545 -0.61846185 -0.5780812 0.57154644 -0.061507538 0.7358198 -0.25618106 0.4300621 -0.035420347 -0.013166927 -0.4724164 0.58162266 0.6315575 -0.41166797 -0.25937712 -0.11795104 0.04262978 -0.08674599 -0.12265617 -0.38972092 0.10828648 -0.107213534 0.47464412 -0.0328087 -0.2626072 0.563426 0.00039477082 0.1390266 -0.31528583 0.07429094 -0.37882593
1 0.22414403 -0.043512773 0.34602693 -0.3026265 -0.1701205 -0.56390274 -0.027104152 0.3973102 0.2179868 0.1203715 -0.20685682 0.19772518 -0.36440867 0.11329421 0.277778 0.23454243 0.37410262 0.119731516 0.15587275 0.18011722 0.31944388 0.23101391 0.637451 -0.47214043 0.4758577 -0.21104433 0.0575708 -0.45435238 -0.35413784 -0.29835725 -0.06533628 0.0030709042 -0.20957582 0.38041458 -0.3781165 -0.3450241 0.66194075 -0.013329768 0.16351555 -0.06791977 -0.10197882 -0.34437764 0.0025521694 -0.34869492 0.36155963 0.2225368 -0.013776242 -0.08727103 -0.13019767 0.32790264 -0.6129848 -0.4347052 -0.14462367 0.6328177 -0.0011194154 0.33874783 -0.04563799 -0.3212353 -0.20250612 -0.10707522 0.16000548 -0.094889596 0.19675107 -0.7425186
137 0.1459271 -0.11922519 -0.545201 0.11246923 0.09853747 -0.25077975 0.354472 -0.16822512 -0.32370153 -0.19072993 0.53824824 -0.021192962 0.03272736 -0.16872858 0.006935331 0.35072905 0.05950186 -0.37183014 -0.37848914 0.5879054 -0.14888217 0.17908661 0.48254102 -0.17274274 -0.047506977 0.035952244 -0.25008947 0.6225416 0.74121255 -0.15921278 0.28189304 0.16310182 -0.07973473 -0.61904985 -0.015595416 -0.21363086 0.60729563 -0.2037655 0.30103636 0.23614606 -0.1805668 -0.24215342 0.3484468 0.56747746 0.735362 0.2842258 -0.04807778 0.037110258 0.19112882 0.28039435 0.055993833 -0.29159662 -0.22285876 0.13702515 0.23569512 0.4453338 0.0072174775 0.15351255 -0.0062300963 0.10733862 -0.43461862 0.09235998 0.04794637 -0.38032314
109 0.1316268 0.15287246 -0.33616263 -0.16623648 0.47193238 -0.18812306 -0.09585402 0.091115214 -0.033162273 0.19910349 -0.26243165 -0.13781817 -0.8157626 -0.3342133 -0.11302906 0.28033075 0.7910931 0.15204373 0.1309308 0.5527057 0.19498849 0.34104875 0.7262767 -0.61870885 0.07840499 -0.2129494 0.011703892 -0.030186288 -0.51983255 -0.38769993 -0.50051165 0.5626472 -0.5432362 0.30959418 -0.07288494 0.11279559 0.3987021 -0.13523172 0.13875228 -0.9420184 0.031291794 -0.21156226 0.43092206 -0.11003544 0.02678928 0.050737426 -0.30193406 0.06022675 0.15347448 0.3163847 -0.46514064 -0.3854187 0.2238669 0.36603403 0.051231336 0.59797215 0.13604642 0.27260056 -0.008189241 -0.051212616 -0.21480706 -0.116626665 -0.09620451 -0.6522365
22 0.41345215 -0.21725683 -0.42017242 -0.2929165 -0.21323127 -0.15851156 0.697974 -0.3254055 -0.12393419 -0.032200906 0.3229461 -0.018316576 -0.10037569 -0.49072564 0.11824542 0.39702386 0.4653373 -0.44312838 -0.29059502 0.26287508 -0.34426355 0.25902784 0.514963 -0.10188229 -0.469414 -0.38829944 -0.082445055 0.5455232 0.61626583 0.032393616 0.6780058 0.093314886 -0.35778192 -0.09454544 -0.5019784 -0.18641277 0.45336205 -0.20557755 0.48209187 -0.24151103 0.5572895 -0.20974204 0.06584054 -0.38984483 0.6740191 0.28784353 -0.3844078 0.04900737 -0.15328953 0.14330043 0.25144476 -0.087346055 -0.6511521 -0.0021437209 -0.26250467 0.14570536 -0.01762267 -0.3215705 0.40151685 -0.043450583 0.09816989 -0.33009875 0.25169447 -0.49249005
180 -0.28158593 -0.11423541 -0.32921588 -0.18552367 0.28562576 -0.10712729 0.19173498 -0.10928386 -0.17600285 0.35624063 0.15669173 -0.4794725 0.3069227 -0.035242394 0.14595498 0.0018678654 0.2524413 -0.29059684 -0.54364425 0.2727228 -0.2903716 0.058505993 0.34776998 -0.6799407 -0.28021076 -0.10122854 0.075943336 0.38846394 0.69691694 -0.23887105 0.57562804 0.4061383 -0.21296056 -0.30242202 -0.31124097 -0.7208833 0.14474007 0.0011977005 -0.13662641 0.29667988 -0.5014898 -0.5673255 0.5002243 0.81675494 1.1235737 0.89484704 0.64769113 -0.33484912 0.3490137 0.6479334 -0.27364087 -0.19362116 0.58194155 0.5906488 0.25378263 0.7162686 -0.32655814 0.19729586 -0.22548178 0.032504268 -0.5219905 -0.6280532 0.3391054 -0.26908356
86 -0.16493294 0.20008472 -0.41550937 -0.18949834 0.3520439 -0.15979649 0.269053 -0.25639805 -0.15640527 0.08188902 0.2148587 -0.3014981 0.25919825 -0.19101235 0.2341597 0.008366786 0.29160118 -0.018855749 -0.55783397 0.33104372 -0.3340692 -0.04907967 0.33565003 -0.46611932 -0.018529044 -0.21707372 0.22754724 0.3366188 0.6169001 0.016399946 0.50863 0.27165222 -0.024176374 -0.2945047 -0.36891982 -0.46163824 0.26503906 0.121101335 -0.17967926 0.39214402 -0.42776808 -0.22120368 0.17100875 0.65130264 0.9851643 0.6291481 0.5662475 -0.2044519 0.38853103 0.5604225 -0.16344617 -0.37267387 0.43442756 0.64502853 0.28134266 0.7478555 -0.2704205 0.12027157 -0.07920347 -0.11062255 -0.42581266 -0.42282864 0.14606667 -0.33923492
159 -0.085111834 -0.29079723 -0.22118305 -0.6973672 0.060676742 -0.079166494 0.7174873 -0.28812027 0.2672358 0.16444203 -0.4042352 0.15208213 -0.396353 -0.4084485 0.08979782 0.45665547 0.505057 0.14124572 0.056533836 0.08820532 0.008167809 0.1902051 0.42468226 0.14140671 -0.56104606 -0.032490686 -0.08805115 0.4581642 0.5834888 0.015649116 0.58583033 -0.41945496 -0.23556371 0.23537165 -0.48679593 -0.44870895 0.6695789 -0.0343329 0.8034299 -0.25584581 0.49566558 -0.0640931 0.13106653 -0.39262685 0.6513652 0.51476234 -0.44344842 -0.18933123 -0.09156894 0.063245654 -0.069890015 -0.034668155 -0.3957211 -0.05377514 -0.100482784 0.26139423 0.014796451 -0.32330498 0.4857063 0.07400717 0.16865835 -0.35481963 0.0077319313 -0.37421247
128 -0.09856543 -0.46075508 -0.48170212 -0.5953098 -0.15344033 -0.06965301 0.79373926 -0.12113421 0.07272071 0.23780023 -0.22788015 0.035065427 -0.24983199 -0.34065568 -0.012028502 0.28023902 0.7628044 0.1695372 0.061908852 -0.031251147 -0.12178587 0.07786591 0.4710536 0.2892532 -0.5732079 -0.06821368 -0.3529112 0.24359468 0.72029144 0.42709422 0.64255077 -0.22454055 -0.2691582 -0.040885653 -0.49092624 -0.23099896 0.43286133 -0.12963244 0.6738682 -0.23154671 0.34857407 -0.16390611 -0.033777345 -0.20133941 0.6879986 0.38839096 -0.58053887 0.18782765 -0.07205095 0.19969973 0.032083884 0.2301354 -0.3552448 0.14092112 -0.19909245 0.414597 0.0049624257 -0.32009867 0.30653074 0.06473662 -0.21842945 -0.34830916 0.41906953 -0.70131403
73 0.20968466 -0.055203244 -0.30386704 0.17288446 0.14155167 -0.46306542 0.8058821 -0.287896 -0.25378153 -0.34471226 0.49584472 -0.3955658 -0.027436664 -0.57536453 0.12253721 0.5401266 0.33263054 -0.21041882 -0.63505447 0.73426414 -0.153054 0.27260426 0.16000512 0.119344056 -0.47051668 -0.13075714 -0.23306997 0.23040773 0.3463265 -0.34469062 0.30049226 0.3078373 -0.12461458 -0.6350226 -0.109032944 0.007050752 0.5477451 -0.24591523 0.4411269 -0.17371808 -0.15966669 -0.26794818 0.25417596 0.41375023 0.42802772 -0.06474371 -0.37973234 0.12267703 0.11070049 0.4810607 0.12518774 -0.25819635 -0.24397118 -0.11034995 0.08089316 0.3321506 0.120659016 0.04811772 -0.09608637 0.1762933 -0.1474381 -0.14466633 0.19238351 -0.3806722
7 0.239324 -0.18611348 0.22414917 -0.28660518 -0.2082335 -0.23445949 -0.09623814 0.2957818 0.19448674 -0.06707201 -0.09178094 0.06972213 -0.52550465 -0.10532492 0.283413 0.032413892 0.31275776 0.0743496 0.060494818 0.18949921 0.14446287 0.11895518 0.6881594 -0.49515298 0.51821595 -0.15220466 0.24550061 -0.40787554 -0.4823992 -0.38446143 -0.2851211 -0.09811665 -0.1881941 0.1765998 -0.5161429 -0.48831597 0.75456524 -0.00045265222 0.20357528 -0.028185168 -0.18456534 -0.13528645 0.05842855 -0.20105879 0.32795873 0.055810157 0.013192698 0.18851124 -0.28808537 0.4013905 -0.72161824 -0.45735374 -0.19232209 0.7153515 -0.14740491 0.2400921 -0.24634545 -0.44859213 0.04364686 0.07443026 0.15774815 -0.3150869 0.19227499 -0.7053011
155 -0.049875084 -0.32080945 -0.34847215 -0.6769828 0.019539278 0.06824939 0.68937516 -0.35982466 0.2864786 0.12757398 -0.4484585 0.07749412 -0.35490748 -0.4486872 0.030671192 0.41458115 0.5487837 0.03523967 0.04032336 0.06279977 -0.05575194 0.19260912 0.41142693 0.17590334 -0.57352996 -0.15337466 -0.21897164 0.36107922 0.72889876 0.10971967 0.7029659 -0.26037034 -0.24556485 0.09215101 -0.35889432 -0.3922168 0.653467 -0.09927064 0.78798455 -0.28218043 0.48875722 -0.13382584 0.1255301 -0.35288 0.65646935 0.43402907 -0.39115807 -0.163298 -0.10604 0.07875263 -0.11080368 0.04507066 -0.39276853 -0.06387456 -0.13507305 0.33693168 -0.037140496 -0.15591021 0.364955 -0.02137631 0.021962756 -0.4354589 0.13662283 -0.56960046
120 0.32809642 -0.44543043 0.13895775 -0.18619022 0.017699381 -0.39950904 -0.47667885 -0.074807815 0.0076210834 -0.049178537 -0.35933304 -0.03543059 -0.5834847 -0.060112793 0.7011984 -0.021276595 0.51064396 -0.3139319 0.03288191 0.27564436 0.1938115 0.627481 0.98825973 -0.1709293 -0.14790386 0.15318908 0.1432157 -0.40531695 -0.31830642 -0.44193175 -0.09059571 0.17848533 -0.3346941 0.2932847 -0.32828844 -0.34090993 0.44065365 -0.45640725 0.5220294 -0.50158274 -0.37277505 0.21801014 0.057160996 -0.0028880294 0.20125704 0.25783443 0.076224655 0.07530166 0.48964444 0.70229816 -0.033544533 -0.35701072 -0.3659973 0.42118365 0.16367403 0.29830942 0.086211 -0.109888695 -0.54585576 -0.42318192 -0.0304724 0.43133116 0.24969546 -0.7360573
187 -0.06570306 -0.3301202 -0.12644449 -0.6112696 0.112682484 -0.13493939 0.7452094 -0.291737 0.28567216 0.090843245 -0.3102297 0.2614512 -0.5064821 -0.22775546 -0.05627458 0.39980662 0.54611176 0.16209203 0.1289921 -0.094277374 -0.04298221 0.17411995 0.22567561 -0.047991294 -0.52734554 0.06512515 -0.21244197 0.33380505 0.6561968 0.21828067 0.57616794 -0.37094662 -0.39670008 0.1971705 -0.5654048 -0.5964091 0.6329035 0.02636769 0.66333824 -0.35778224 0.44272372 -0.0599527 0.13677523 -0.42794576 0.5591509 0.725939 -0.39131972 -0.2355397 -0.09870045 0.0032809533 -0.073721886 -0.0942629 -0.40043283 0.090629265 -0.19680437 0.4554633 0.00725192 -0.35195938 0.45566565 0.008780605 0.16869009 -0.30570126 0.05640816 -0.4099475
172 -0.12371706 0.2841853 -0.37816122 -0.14590275 0.25558817 -0.2415292 0.13395111 -0.26398346 -0.14244203 0.09574054 0.14670973 -0.23955196 0.29801774 -0.23003305 0.23799601 -0.044763833 0.2816542 -0.08051504 -0.53127027 0.32328546 -0.3529217 -0.023769576 0.42060384 -0.34191182 -0.06343991 -0.3391706 0.08939776 0.39350748 0.5578729 -0.008293058 0.4192266 0.31575778 -0.090563074 -0.28762445 -0.28003362 -0.5149694 0.25817066 0.0730023 -0.14096573 0.39976332 -0.3723117 -0.25480282 0.15107906 0.63400674 1.0524893 0.6434013 0.497647 -0.19531345 0.49894935 0.58616465 -0.026378443 -0.37130934 0.3508377 0.58760726 0.32354268 0.66097987 -0.18430088 0.20880024 -0.022525791 -0.1146623 -0.49011195 -0.4347674 0.17322852 -0.35609156
107 0.29271674 -0.14822735 0.16123772 0.09836474 -0.30179295 -0.22424094 0.3239797 0.07788787 0.41954055 -0.2261371 -0.24210563 -0.058956157 -0.6863647 -0.3090192 0.36953 0.1257875 0.33693287 0.36307245 0.088194355 0.48445642 0.26094562 0.19193117 0.9453954 -0.49517018 0.81389123 -0.14914538 0.2509987 -0.42288113 -0.64272654 -0.29122353 -0.036868315 -0.074908756 -0.030750277 0.2968954 -0.41357237 -0.660863 0.7460621 -0.17050782 0.028985811 0.08062567 0.16187538 -0.4411826 0.008799346 -0.2930853 0.4921636 0.0030687277 0.24553542 -0.043463532 -0.107502714 0.3448231 -0.13835491 -0.35505372 0.13891785 0.30718413 -0.33328474 0.5120204 -0.22671932 -0.28447056 -0.32188708 0.15023877 0.35274282 -0.2546834 0.017376319 -0.8051796
154 -0.058291048 -0.4057633 -0.3645794 -0.5367409 0.058550235 0.020608326 0.6911086 -0.25704476 0.21948576 0.20347574 -0.1699633 0.110714935 -0.29426917 -0.34636167 0.033294845 0.3550485 0.72540456 0.1778402 0.03552859 -0.0342317 0.0054566213 0.025690444 0.33821207 0.258019 -0.5828101 0.059151046 -0.21505669 0.3085471 0.6402744 0.25456664 0.5262872 -0.3275951 -0.2109939 0.059969146 -0.47813204 -0.4078978 0.4424675 -0.11100113 0.7206449 -0.2533249 0.4521824 -0.1736839 0.057678424 -0.2599116 0.7926236 0.49231982 -0.4740355 0.04760717 -0.08542495 0.09577426 0.11549232 0.1614405 -0.424829 0.17609513 -0.2649162 0.3956252 0.03611353 -0.23688906 0.2436361 0.05577513 -0.07707284 -0.40755075 0.22885114 -0.6965076
163 -0.07592519 -0.35614085 -0.21459512 -0.73917216 0.014537329 -0.093507975 0.710803 -0.25899017 0.25454363 0.21312098 -0.39701486 0.14536156 -0.36911353 -0.43153602 -0.012622827 0.42451474 0.631284 0.16910656 0.0761522 -0.025103508 -0.08815103 0.17909999 0.43886778 0.13529204 -0.5471393 -0.02057521 -0.13279831 0.3860299 0.64195853 -0.003118877 0.54920614 -0.4014681 -0.28535232 0.14978638 -0.56011385 -0.46193415 0.6115694 0.079483934 0.8353145 -0.32740963 0.43171924 -0.1050769 0.15758364 -0.345091 0.6482272 0.4919083 -0.3737571 -0.07478499 -0.19694008 0.017167551 -0.12564468 0.019436223 -0.40359908 -0.097774416 -0.18613549 0.36583412 0.04975862 -0.29363513 0.39838555 0.16851401 0.06341315 -0.35537636 0.19870086 -0.37721708
113 -0.14979672 0.0149396695 -0.3392496 -0.14702788 0.22947781 -0.17473048 0.15601647 -0.23877127 -0.38718805 -0.25943026 0.29150838 -0.29171237 0.13318768 -0.28939596 -0.18285309 0.1695355 0.3889998 -0.34407556 -0.43826893 0.5819024 -0.23979598 0.21615317 0.2802482 -0.44636837 -0.25852674 0.012942029 0.21417074 0.4207157 0.7685702 -0.0024960618 0.56344 -0.18082823 -0.13189363 -0.16874298 -0.19229768 -0.28360426 0.4878624 -0.3104168 0.3855004 -0.42752457 0.252395 -0.08971856 0.30843937 0.6168581 0.6030088 -0.05439841 0.15244573 0.2346462 0.07853864 0.48663893 0.28291634 -0.27266207 0.2669567 -0.19872826 -0.18365404 0.15138954 -0.023253534 0.24507613 -0.019969624 -0.26088005 -0.4845516 0.17318664 0.47360536 -0.4981023
28 0.25379828 -0.10474069 0.33884144 -0.3903 -0.18295735 -0.26411036 -0.16792056 0.39766836 0.18190695 0.0747167 -0.13921152 0.05214833 -0.43076664 -0.18443783 0.2657977 0.14063488 0.291611 0.2079907 0.16062763 0.220966 0.18179533 0.12467364 0.72569394 -0.38958967 0.6481504 -0.35721233 0.12605333 -0.41787234 -0.42729777 -0.29973173 -0.12338251 0.03193464 -0.17688495 0.27640688 -0.43024918 -0.5860344 0.7254288 -0.061502486 0.2058413 0.00014051131 -0.2221487 -0.24367288 -0.04220145 -0.1421462 0.38717002 0.00077171676 -0.016953196 0.15554142 -0.24533185 0.38209566 -0.6878663 -0.5157129 -0.23604922 0.73006976 -0.09980245 0.2600129 -0.26560578 -0.48902836 -0.13737944 -0.011757341 0.22040078 -0.29941478 0.15636075 -0.6676398
95 0.41201544 -0.3979704 0.22967656 -0.19300164 0.32323575 -0.4340618 -0.28241283 0.07507603 0.07639241 -0.050867643 -0.30427098 -0.06462806 -0.6316017 -0.1761445 0.43676713 0.19188155 0.46659395 -0.44570494 0.07535521 0.42911273 0.28932962 0.4203559 1.0295209 -0.22929153 -0.088933915 0.07685607 0.10046238 -0.5127821 -0.17467701 -0.33219174 0.0014264641 0.047534507 -0.30893445 0.31713328 -0.29213825 -0.20810536 0.42140236 -0.33629134 0.4497944 -0.42285565 -0.14108667 0.07852689 -0.045631237 -0.07881594 0.12110686 0.18019418 -0.049010705 0.11668973 0.58643013 0.6685385 -0.10149336 -0.49322897 -0.24515875 0.29104325 0.093213335 0.27869216 0.10344587 -0.17838547 -0.5626823 -0.39612323 -0.03524364 0.5595154 0.2530001 -0.8166348
69 -0.15773581 -0.05006993 -0.39860696 -0.14231582 0.2099847 -0.24096803 0.18014726 -0.15433699 -0.23472987 -0.10097901 0.33227324 -0.17883758 0.16919138 -0.36220494 -0.113843806 0.27120712 0.37233296 -0.24832518 -0.23492527 0.7585628 -0.5004722 0.05189678 0.54294455 -0.42166767 -0.1798814 -0.08373466 -0.015550684 0.4422116 0.693886 -0.1854868 0.5310281 -0.0031635961 -0.19041002 -0.35571378 -0.09396531 -0.3390158 0.43256322 -0.052154213 0.19495495 0.0024816315 0.1484217 -0.032694433 0.13364534 0.7612756 0.6424605 -0.027534306 0.13306929 0.075049244 0.06472999 0.5181549 0.36929107 -0.067009896 0.15374321 0.056960803 -0.20133017 0.23237649 -0.13770004 0.14587983 -0.07473447 -0.28419873 -0.45029908 0.045301307 0.2957569 -0.46644473
97 0.22572191 -0.45454013 -0.62464565 -0.71158123 -0.044754386 0.10138031 0.6551426 -0.10217713 0.16570817 0.09976001 -0.2133429 0.045995053 -0.21831363 -0.40418172 -0.014713792 0.37814775 0.6599469 0.08721566 -0.13214575 0.031614896 -0.13333564 -0.02598283 0.3475941 0.28156322 -0.49890473 -0.05352333 -0.3172909 0.42322755 0.710515 0.30520248 0.66004455 -0.18828887 -0.2429019 -0.19944139 -0.4426471 -0.2146105 0.31261113 -0.27108237 0.4449549 -0.18572783 0.36446205 -0.3911211 0.08813067 -0.19289704 0.7644801 0.49462086 -0.6184683 0.16861074 -0.13804393 0.2698897 0.041231833 0.08832903 -0.30022898 0.16767168 -0.14911965 0.24981509 0.016921869 -0.26498452 0.2108956 0.00049069535 -0.18499295 -0.2317138 0.6010098 -0.5984217
130 -0.19755787 0.12668994 -0.19749616 -0.09661756 0.29405016 -0.61444837 0.6305741 -0.07039371 -0.32781827 -0.16993237 0.3215225 0.06497994 0.19877918 -0.011096067 0.07718876 0.28013712 -0.20884697 -0.1005285 -0.65386206 0.6074173 -0.22551431 0.19658098 0.3375759 -0.2686155 0.15463103 -0.13196857 -0.18272838 0.5245721 0.54727143 -0.17496927 0.4009733 0.3130544 -0.17408405 -0.50054526 -0.3652773 -0.27943084 0.6216585 0.12162988 0.2316928 0.3413399 -0.34805402 -0.10995639 0.2071687 0.41471937 0.86635864 0.33546868 0.039559975 -0.14621976 0.6344595 0.34872583 -0.0358035 -0.39464927 0.18119214 0.35703218 0.276315 0.6846418 -0.21626899 -0.15766798 -0.16330723 0.030866427 -0.42672428 -0.17744172 -0.018824628 -0.04640537
198 0.023132853 -0.3857304 -0.51210165 -0.6768015 -0.029762805 -0.019659853 0.6713019 -0.18373182 0.06469683 0.11117129 -0.20525879 0.058155455 -0.29237583 -0.5056619 0.07220073 0.27346933 0.8059489 0.23040342 0.026358958 -0.12207568 -0.033956904 0.041962054 0.42717582 0.30421436 -0.5962263 -0.0907749 -0.33812296 0.4529986 0.6624134 0.41425478 0.5934312 -0.17286623 -0.16327542 -0.11114585 -0.4461583 -0.25454652 0.50659394 -0.17485528 0.61664855 -0.24518149 0.3619398 -0.23348692 0.1359324 -0.28593048 0.64330196 0.47801286 -0.5346059 0.16385236 -0.060523342 0.23640896 0.10987661 0.18042079 -0.32672116 0.29036167 -0.1802413 0.30401936 -0.14675778 -0.22484064 0.26731277 -0.026417252 -0.10301485 -0.21415475 0.4310868 -0.597019
47 -0.1482318 -0.10727757 -0.42356545 0.0057822396 0.19600971 -0.18943286 0.20095834 -0.0983395 -0.33457375 -0.011127541 0.2829566 -0.20773111 0.13815528 -0.22566268 -0.1761876 0.23028736 0.33121964 -0.34929264 -0.2907518 0.8074896 -0.41672754 0.085615925 0.47115472 -0.28651002 -0.033085518 -0.08752044 -0.10078077 0.36929494 0.74757636 -0.15191373 0.50850475 0.10028835 -0.23256718 -0.38738063 -0.07874975 -0.1766803 0.38756585 -0.06935538 0.24932377 -0.02256404 0.07213746 -0.1700423 0.21647748 0.7900182 0.76350695 0.056632087 0.110170856 -0.04563558 0.037480585 0.60184044 0.14598085 0.0031087017 0.06743611 0.037801255 -0.12940781 0.3340757 -0.27416477 0.026131028 -0.01467916 -0.13257684 -0.4434146 -0.019619452 0.26623127 -0.345122
164 0.17757988 -0.05818559 -0.4651017 0.2496983 0.17642924 -0.21948299 0.5438385 -0.2803719 -0.26495802 -0.1369424 0.52159125 -0.22840331 0.13178669 -0.40823457 -0.20422539 0.3915249 0.34840444 -0.22517283 -0.44770843 0.73103833 -0.21401533 0.2538609 0.29454166 -0.19080892 -0.18509105 -0.136901 -0.27293056 0.4602556 0.66652906 -0.359356 0.4145589 0.0058181803 -0.15732643 -0.53670883 -0.046612363 -0.13105664 0.6062167 -0.2739762 0.43700656 0.054006927 -0.09376055 -0.21545985 0.40139022 0.5662741 0.6264201 0.11549619 -0.2047639 0.18613946 -0.040685795 0.42469105 -0.066972926 -0.1423468 0.012001384 -0.04773171 0.061579097 0.36778736 -0.06006899 0.0079461 -0.12128989 -0.023142893 -0.38162598 0.022071699 0.17618735 -0.34070116
49 -0.2585194 0.2440726 -0.18310466 -0.4369704 0.15625307 -0.4180761 -0.081977434 0.08569496 0.105737664 0.17029108 -0.2782057 0.13467263 -0.57763416 -0.01157186 -0.17225614 0.21355915 0.4984065 0.10396018 0.15865503 0.7786868 0.119542174 0.3557062 0.4989293 -0.6516566 0.14679474 0.14871275 0.02672426 -0.46478382 -0.11459655 -0.27083412 -0.62695944 0.31532034 -0.7798415 0.36121264 -0.24562013 -0.44325057 0.159379 -0.060817763 0.48399344 -0.29999453 0.22820675 -0.2936799 0.2509255 -0.5107904 -0.102879755 0.26532316 -0.5052324 -0.26063797 0.2437236 0.073377125 -0.26654223 -0.50031996 0.17496939 0.38021728 0.19185786 0.5496502 0.009481147 0.044211842 -0.10438343 0.1034235 -0.06386761 0.069853 0.0071362755 -0.91934687
162 -0.18697543 -0.46598548 -0.49866384 -0.77905184 0.10718573 -0.040449314 0.7328909 -0.23525724 0.19246365 0.20987189 -0.18807876 -0.038370047 -0.36916688 -0.30653125 0.018742617 0.29160115 0.67840195 0.16974096 0.014678742 -0.05524683 0.14513497 -0.021588648 0.20786278 0.2769794 -0.5843794 0.037186142 -0.21756661 0.34580088 0.57536113 0.23957795 0.5892678 -0.23286532 -0.22363941 0.11465387 -0.48156253 -0.36077866 0.37640163 -0.08986822 0.81417954 -0.3397015 0.49843878 -0.12426762 0.14993373 -0.26604038 0.6998799 0.5632531 -0.38430068 -0.01825861 -0.0030307549 0.009175713 0.06646911 0.22430274 -0.42055064 0.35287136 -0.29527768 0.3530969 -0.057005353 -0.2923675 0.0846512 0.10265868 -0.05593449 -0.3382843 0.3961608 -0.62615806
188 -0.08499305 -0.37894252 -0.47651047 -0.83566314 0.1222925 0.036397777 0.79206055 -0.31403255 0.28323492 0.123696156 -0.14078298 -0.019206397 -0.50815994 -0.10248576 0.054443564 0.31035843 0.64291596 0.18288231 -0.026266472 -0.09796672 0.16331133 0.1797949 0.14950871 0.20254558 -0.47750267 0.1013331 -0.24114582 0.437215 0.5968133 0.21346147 0.48193887 -0.27746636 -0.3409013 0.20903547 -0.56684905 -0.5249756 0.36779293 -0.087595 0.7543969 -0.16761401 0.53321284 -0.17134199 0.09875101 -0.23642091 0.5680169 0.59006 -0.4829162 -0.11314656 -0.06755757 0.0701822 0.025668677 0.1290363 -0.33687878 0.27371258 -0.30994764 0.41397154 -0.07488531 -0.3471879 0.14048386 0.0827581 -0.07154273 -0.2759466 0.2165157 -0.565959
25 0.466252 -0.4536229 0.09555151 -0.076093346 0.13839193 -0.37603703 -0.4943055 -0.12284668 -0.14714345 -0.045869086 -0.35335377 0.007466049 -0.6232184 -0.23777363 0.61995065 0.042967584 0.61199915 -0.18398285 -0.05559612 0.2601759 0.36132744 0.47684374 0.9120943 -0.22661486 0.0044594132 0.16331883 0.15820554 -0.53348595 -0.17150934 -0.33518866 -0.1117521 0.2314991 -0.3651151 0.31432554 -0.2472657 -0.22490099 0.48343363 -0.4232457 0.5151954 -0.51204586 -0.36959234 0.037186194 0.08932254 -0.031382166 0.1926084 0.30444926 0.013555945 0.063745275 0.3630772 0.66758215 0.024638869 -0.26127312 -0.28686014 0.51486194 0.10807122 0.3285961 0.027413398 -0.28693914 -0.5962646 -0.28443253 -0.1375717 0.5408952 0.10312492 -0.72051775
12 -0.13378227 -0.41614085 -0.18851444 -0.65971476 0.19564146 -0.16205007 0.7341885 -0.27297935 0.21409637 0.1593529 -0.25502598 0.26047048 -0.5002792 -0.13378266 0.0002461262 0.33025703 0.3454693 0.13908702 0.34871408 -0.09182227 -0.083583176 0.17025058 0.22563726 -0.07431048 -0.5650819 -0.048731178 -0.058608156 0.38165656 0.423702 0.22898434 0.523431 -0.3146198 -0.5189271 0.19317345 -0.46216533 -0.511402 0.6600585 0.18689956 0.5743768 -0.31760618 0.5712732 -0.0034522212 -0.042044327 -0.44934586 0.56088746 0.75152385 -0.41677266 -0.17498663 0.023941543 0.08082856 -0.035974227 -0.11425329 -0.33801222 0.09848767 -0.25304493 0.4640446 0.17033626 -0.35104483 0.44845343 -0.070682 0.092777275 -0.3572733 0.12805352 -0.40837362
20 0.38355243 -0.15884916 -0.29705042 -0.30818537 -0.15108879 -0.0051386235 0.5714719 -0.265843 -0.064717956 -0.028893443 0.28721914 -0.16432886 -0.021266162 -0.45126006 -0.01208444 0.47305244 0.6839638 -0.45959806 -0.2684128 0.3278949 -0.47875986 0.23664176 0.40439957 -0.022514852 -0.23457676 -0.25117907 -0.22399855 0.52357066 0.67305523 0.05325903 0.58162683 0.031237245 -0.2541732 0.059636887 -0.5190143 -0.0764662 0.52533007 -0.3042249 0.50323457 -0.27322492 0.47722453 -0.22408505 -0.07129735 -0.46736783 0.7240291 0.40348193 -0.48285803 0.07209752 -0.14074299 0.13026953 0.2216559 -0.19056763 -0.606105 -0.08894187 -0.19865252 0.19515055 0.049110297 -0.35875747 0.4442562 -0.11309422 -0.060375504 -0.3280992 0.28921014 -0.37677976
179 0.053408347 -0.71338004 0.19391876 0.23005913 -0.15636525 -0.0024885486 0.36239767 0.88430285 -0.21115787 -0.51086974 -0.31829882 -0.40604973 -0.5135085 0.21750282 -0.047975097 -0.20748167 0.544772 0.02444852 0.82504857 0.7229262 0.3721337 0.20693558 0.55377984 -0.37477237 0.22786759 -0.22937553 0.6412928 -0.22493099 -0.21295585 -0.36213478 0.088182904 0.66835195 0.29664743 0.2748342 -0.18423791 -0.94879645 1.0772467 0.086923346 0.3667233 -0.4807579 -0.54367024 -0.7122088 0.112848364 -0.33993372 0.10483652 0.22209668 -0.48707485 -0.43411064 0.8745791 0.18520024 -0.3592296 0.096032545 -0.61499655 0.90259945 -0.039281603 0.23631983 0.37607586 -0.45010132 0.052189883 0.3876312 0.2709869 -0.25626412 0.63091594 -0.42198604
123 0.2081901 -0.11026893 0.28125682 -0.3089552 0.087123476 -0.58372605 0.009163825 0.2961314 0.21615545 0.05390023 -0.32607913 0.28478917 -0.25569898 0.18429199 0.3160323 0.25596344 0.38814035 0.03862631 0.024503432 0.09176477 0.36964983 0.20836103 0.69188964 -0.40582085 0.4869652 -0.29799795 0.034124784 -0.5187764 -0.5072597 -0.30514172 0.0049922206 0.049690694 -0.2253857 0.48952076 -0.36897185 -0.39821145 0.76295173 0.0657397 0.0006878969 -0.077030905 -0.08220817 -0.20471771 -0.11461138 -0.211595 0.38740438 0.08663517 -0.15775223 -0.020834079 -0.07580913 0.27274454 -0.6055328 -0.38825312 -0.2867251 0.46472016 0.00014067636 0.39781746 -0.036886904 -0.43474716 -0.22764677 -0.29535574 0.2462635 -0.09820435 0.22915362 -0.7669098
197 -0.31048375 0.21106675 -0.32572532 -0.19049639 0.13580222 -0.7032064 0.51541346 -0.11444924 -0.16201855 0.06704381 0.41805363 -0.07898718 0.16504587 -0.1238047 -0.061822005 0.02569985 -0.08115286 -0.125209 -0.6181565 0.5393886 -0.2890439 -0.052349724 0.28600973 -0.33985227 0.33922887 0.05363455 0.057283446 0.42975113 0.53509825 -0.20163137 0.48812965 0.2702511 -0.16842283 -0.48994926 -0.32950264 -0.40363723 0.5915845 0.055104572 0.16988769 0.17483129 -0.23850343 -0.104756445 0.16498862 0.4405051 0.9149196 0.2574953 0.14888914 -0.13694838 0.6501078 0.42742938 0.22516808 -0.3778636 0.02567533 0.33666253 0.17324147 0.6473529 -0.14676844 -0.030882223 -0.075130776 -0.028171973 -0.36229306 -0.2146592 0.15538168 -0.19508271
112 -0.2722079 -0.16091584 -0.16951022 -0.36704114 0.43248126 -0.37520555 -0.41389567 0.3608 -0.12883359 0.048389964 0.08206745 -0.18845615 -0.78316855 -0.21589921 0.24293986 0.022951541 1.2361252 0.3717812 0.23479386 1.0027199 0.0014998019 0.32531157 0.77275205 -0.2632781 -0.17070965 -0.22777036 0.34092706 -0.028806157 -0.3236194 -0.38795894 0.024369396 -0.021213321 -0.63036305 0.27149156 -0.33659443 -0.18570165 0.6683704 -0.20521657 -0.03841221 -0.733532 0.019582927 0.060687505 0.2331839 -0.071723476 0.16785337 0.42941418 0.21993679 -0.094597384 0.41008642 0.51814616 -0.07010361 -0.53224856 0.5087036 0.09164169 0.8493558 0.71522206 0.77390724 0.19702055 0.011282861 0.05954997 -0.33427528 0.28963032 -0.19433273 -1.2345777
166 -0.0067175473 -0.21245572 -0.1799367 -0.6798937 0.4267219 0.09559356 0.29657775 -0.05339821 0.23492728 0.51431465 -0.33781803 0.24743213 -0.49597538 -0.17558953 0.2006306 0.22074789 0.016832614 0.24107131 0.3141545 0.1407318 0.28401414 0.3841287 0.43512115 -0.06475066 -0.0077039343 0.24043974 0.21597555 -0.41346025 0.009808591 -0.2312283 -0.01726229 -0.16630383 -0.46003592 0.4021005 0.16812971 -0.6012534 0.4069002 0.15488304 0.38806495 -0.1361264 0.42597798 -0.2921675 0.07849006 -0.48830113 0.32504392 0.66556525 -0.29301447 -0.32413062 0.070231244 0.25793624 -0.49675736 -0.28637642 -0.13374476 0.46317393 0.06482997 0.6900834 -0.16036719 -0.3720671 -0.13198784 -0.37614566 -0.032651357 0.05511964 0.10243135 -0.52828974
46 -0.2370402 0.01750736 0.10836589 -0.32928365 -0.59790516 -0.2937139 0.021889927 -0.6189808 -0.025282219 -0.048830494 -0.3203543 -0.6480038 -0.7855447 -0.16265647 0.733073 0.73312414 -0.05909231 -0.09464219 -0.21059349 0.78518677 0.49682072 -0.17073223 0.25851637 0.24241234 0.51343113 -0.21565056 0.108355306 -0.030609034 -0.22598226 -0.23589139 -0.49369255 -0.15992211 -0.052661587 -0.38535973 -1.191735 -0.41392234 0.7962798 -0.038683027 -0.086726286 -0.703031 -0.1036888 0.16186596 -0.2368469 -0.22449972 0.96544456 0.6373305 -0.033609893 -0.58669317 0.6169982 0.38503173 -0.7968203 -0.20818192 -0.081467815 0.95436347 -0.18250884 -0.20320998 0.040416073 -0.10119062 0.21821646 -0.28873643 0.26028714 -0.20782483 0.22832732 -1.1504041
171 -0.10350849 -0.034308217 0.07655857 -0.18862803 -0.173331 -0.08717673 -0.089767665 0.25258794 -0.17595321 -0.25324038 0.1417054 -0.3685349 -0.59030586 -0.112704806 0.3259035 0.3597442 0.36760342 -0.14965746 0.35719243 0.4104656 0.48421174 0.47753605 0.63570064 -0.4279278 0.41742802 0.009270719 0.5926712 -0.3850633 -0.16851856 -0.3325591 -0.10236371 0.15877143 -0.14884607 0.18795376 -0.8476066 -0.5300604 1.0241864 -0.23155256 0.20962381 -0.040138975 -0.15808888 -0.033260755 -0.024420187 -0.20017666 0.40439492 -0.22656123 -0.3693623 0.0660423 -0.16066107 0.28750092 -0.8117563 0.0754066 0.122745216 0.5950904 0.05349431 0.056445166 0.124225765 -0.13669726 -0.2853342 -0.15541491 -0.008708673 -0.119018435 0.08654287 -0.6086624
149 0.14135571 0.22174922 -0.19410367 0.0049530873 0.66784114 -0.1673044 0.40390137 -0.06844431 -0.66376173 -0.6011654 0.86590225 -0.3292556 -0.23688114 -0.7390763 -1.0209173 0.8188006 -0.3845354 -0.4759387 0.17955835 0.5991747 0.073004805 -0.113791205 0.54984426 0.16485548 -0.41610798 -0.67062265 -0.26792905 0.39676845 0.8429203 0.015955089 0.43976748 -0.0564551 0.14421614 0.4395147 -0.21575138 0.0031468673 1.0784185 -0.061024748 0.44219694 -0.5898911 -0.24168652 -0.28431773 0.60763276 -0.0073832753 0.98517865 0.021874884 -0.25788206 0.043038454 -0.55005646 0.8625758 -0.48454237 -0.70703316 -0.57149386 -0.07087701 0.23970157 0.8418434 -0.7891519 -0.16082865 -0.23507147 -0.70324385 -0.17107521 -0.6686588 0.42447656 -1.123315
174 0.019818773 0.08796282 -0.17552565 -0.648852 0.4522195 -0.07608043 0.11701055 -0.45938244 0.16588135 0.1516523 -0.46170568 0.1807578 -0.68840295 0.12811974 -0.09461832 0.20220828 0.07332441 0.7199799 0.3750672 -0.17456001 -0.36321574 0.22839983 0.830267 -0.08443623 -0.19659737 -0.11118357 -0.33496132 -0.40166032 0.41349387 -0.31922972 0.15999627 0.0013690506 -0.102543965 0.43396577 -0.026335882 -0.6581684 0.5605379 0.618054 0.579087 -0.15416227 0.16338043 -0.23539002 -0.13515837 -0.28419247 0.23465164 1.1111209 -0.38358387 -0.1710478 0.33040267 0.3333001 -0.2290701 -0.17834112 0.112008445 0.3199071 0.117374696 1.0001463 -0.09408799 -0.67305225 -0.04741991 -0.4171447 0.04019234 0.2733246 0.24445556 -0.47617438
157 -0.07126416 -0.40878323 -0.43889505 -0.8083331 0.14278089 0.0110347755 0.75264496 -0.1779658 0.25114584 0.122832075 -0.100950226 0.08009409 -0.41212732 -0.22007653 0.050257925 0.35330775 0.7448131 0.26557338 0.012350153 -0.12847978 0.18111965 -0.043606073 0.26388282 0.18827498 -0.6847708 -0.033173885 -0.32265773 0.3522898 0.646518 0.2564128 0.4343188 -0.22610341 -0.21138823 0.071420185 -0.62562984 -0.4119416 0.4228644 -0.022100525 0.70655006 -0.27170548 0.46229914 -0.20445381 0.056914356 -0.13352196 0.7256064 0.5632313 -0.45733538 0.06420317 -0.03367027 0.078760505 0.145778 0.25164214 -0.35851124 0.25621894 -0.2618382 0.41627532 -0.009240274 -0.33749235 0.18562365 0.1425863 -0.08578558 -0.38836378 0.38618904 -0.6522705
93 0.13576902 -0.050942186 -0.14121921 -0.7703451 0.34940562 0.1746682 0.35367802 -0.30712226 0.41621605 0.34830284 -0.2980952 0.40220517 -0.5254558 0.24918705 -0.0391184 0.324365 0.18777427 0.3899529 0.13203575 0.13308433 0.16526942 0.14747192 0.6329013 -0.017793944 -0.3482604 -0.048021346 -0.07487102 -0.11377444 0.1766501 -0.0604145 0.20158081 -0.17711687 -0.35360962 0.3398816 -0.09793545 -0.690241 0.48128742 0.34905994 0.85037327 -0.009939298 0.35175073 -0.21017963 -0.15683696 -0.8388709 0.44175157 0.7006748 -0.36022478 -0.1480963 0.20570698 0.10806046 -0.09800079 -0.2174749 -0.045450445 0.4584642 -0.124611154 0.77826834 -0.020228809 -0.5000086 0.16189642 -0.37726805 -0.19680662 -0.22368093 0.31137612 -0.25821
6 0.12735102 0.10525747 -0.0926987 -0.6715749 0.24732581 0.21522911 0.36196202 -0.5341162 0.25239894 0.38757426 -0.33011678 0.34799653 -0.6474945 0.33792654 -0.0074415114 0.33420125 0.12639816 0.45160982 0.2326872 -0.062042635 -0.12146921 0.15770096 0.8230373 -0.070127286 -0.283588 -0.082502544 -0.18958077 -0.2575761 0.3194678 -0.12260985 0.19382004 -0.0014278376 -0.21554086 0.32821277 -0.060204234 -0.60220224 0.44564915 0.5796076 0.6766721 0.027334008 0.37161097 -0.18642099 -0.027825158 -0.7012905 0.39321357 0.7506991 -0.37003767 -0.27120236 0.138793 0.17956015 -0.17474721 -0.27130973 -0.010229766 0.3814972 -0.14629078 0.94260377 0.1121399 -0.55548924 0.0788592 -0.32760486 -0.1951122 -0.00033324107 0.36794943 -0.33772895
190 -0.0071051745 -0.14188339 -0.40916452 -0.26817936 0.13791466 -0.32633692 0.40691432 -0.23790197 -0.32538402 -0.2765201 0.24243666 -0.3242632 0.28926474 -0.24858281 -0.31930134 0.1358746 0.3320436 -0.11659958 -0.32121095 0.6569177 -0.3609821 0.07495988 0.39634058 -0.47549844 -0.4590574 -0.3484199 0.113588236 0.67351764 0.55877006 -0.017435413 0.5516224 -0.12701742 -0.13234389 0.041437212 -0.11126065 -0.25866175 0.084863394 -0.3155939 0.3356452 -0.21647575 0.4039946 0.0775532 0.18084297 0.6139541 0.64015305 -0.12148202 0.09926776 -0.030303163 0.11163026 0.638522 0.11911031 -0.22773446 0.014363848 -0.14025389 -0.01815271 0.1831496 0.3586579 0.1640514 -0.2728925 -0.17236166 -0.25568748 0.1271764 0.20471221 -0.6525526
16 -0.078603245 -0.13701096 -0.19090292 -0.6191995 0.31533504 0.11381466 0.14927703 -0.0700654 0.4848379 0.47842613 -0.26685545 0.30497372 -0.6134553 -0.049795404 0.2511738 0.28842476 0.01751998 0.407704 0.23096102 0.11799822 0.25263482 0.3040964 0.4699171 0.019262422 -0.17588115 0.16175902 0.19375688 -0.3802444 0.22734208 -0.20683132 -0.07421256 -0.15089853 -0.42121634 0.24428393 0.0007070806 -0.4845008 0.54044807 0.15532549 0.5543611 -0.06565609 0.27009088 -0.20392826 -0.024171548 -0.5425913 0.26688704 0.75320137 -0.29791403 -0.28838322 0.20270051 0.17718111 -0.33797866 -0.21602233 -0.098095335 0.40911272 -0.0154033415 0.6544058 -0.058020044 -0.35646737 -0.019161593 -0.52392113 -0.05813814 -0.027294511 0.22822869 -0.52307886
19 0.21277402 -0.24559316 -0.7441752 -0.4361865 -0.04168871 -0.03241553 0.5933726 -0.21134226 -0.2860243 -0.12503585 0.11634047 -0.06650359 -0.1559751 -0.15488732 0.11902267 0.5943373 0.5412986 -0.20287195 -0.14193726 0.29773468 -0.17407805 0.027440077 0.4456768 0.07648693 -0.36391363 -0.2455669 -0.24951681 0.7089469 0.68177503 0.25480312 0.87583137 0.083851375 -0.34655893 -0.060588006 -0.53371686 -0.07038364 0.34188902 -0.33411145 0.396811 -0.3620042 0.1616087 -0.18216793 -0.0025438864 -0.25350288 0.69046277 0.21174087 -0.5164106 0.07316239 0.0064784763 0.16501793 0.1983507 -0.19495164 -0.40906045 -0.077436425 -0.35526988 0.03288287 0.12909934 -0.28984258 0.16950253 0.056971755 -0.1668839 -0.27912533 0.57101774 -0.3773608
75 -0.06620619 -0.08441563 -0.38838315 -0.15836526 0.1783927 -0.18781938 0.21948834 -0.029768592 -0.3431982 -0.102963954 0.15838595 -0.14784051 0.27634576 -0.26065204 -0.18548316 0.14350304 0.34200013 -0.17242306 -0.37202188 0.76153404 -0.46520963 -0.062370367 0.42323524 -0.5005043 0.0026396727 -0.050626796 0.06550177 0.25944698 0.7505198 0.029991573 0.56628317 0.31302273 -0.034410443 -0.35396954 -0.09424938 -0.23995909 0.27132678 0.030185906 0.21549916 -0.0143343685 0.14481694 -0.044564344 0.28285608 0.7029594 0.88638824 0.112775035 0.2962249 -0.060392346 0.21951635 0.58127534 0.3151016 -0.09244482 0.13262387 0.19916783 -0.064989835 0.37182933 -0.22573583 0.047690958 -0.028827762 -0.24547033 -0.4360379 -0.09329473 0.25076 -0.4983106
201 0.3144891 -0.06102008 0.27274358 0.081344016 -0.20758007 -0.33859894 0.3262833 -0.016911052 0.21063732 -0.2542677 -0.25797713 -0.13236056 -0.6800716 -0.30177063 0.38012147 0.12803835 0.45023492 0.3195682 0.25206628 0.46810147 0.4363442 0.07156886 0.8425721 -0.45084438 0.64054066 -0.2474255 0.3366779 -0.47661555 -0.677933 -0.2845876 -0.116666354 -0.15000547 -0.18877742 0.22852993 -0.29711604 -0.66246146 0.7452099 -0.18311936 -0.007064509 0.010506212 0.0853393 -0.32160038 0.13973047 -0.1669127 0.6339177 -0.060384467 0.20906262 -0.11958072 -0.2652938 0.4756534 0.032562453 -0.29001534 -0.026867023 0.3695253 -0.2869303 0.3249397 -0.30157736 -0.15892775 -0.4631393 0.08527931 0.26820636 -0.3813931 -0.02588079 -0.7161539
2 -0.015380555 -0.20368648 0.21674295 -0.4012773 -0.22421691 -0.32955948 -0.26616243 0.2773946 0.11447645 -0.020888088 -0.071844615 -0.031294994 -0.38362196 0.111300185 0.31985724 0.2774909 0.19115297 -0.14696005 0.3102116 0.45323557 0.07838099 0.13629177 0.63102263 -0.63374126 0.37323412 -0.34999397 -0.019311786 -0.58821565 -0.24042909 -0.18746525 -0.23633726 0.07781375 -0.29797792 0.377725 -0.64513206 -0.58854145 0.5019537 0.090474285 0.36267847 -0.21343581 -0.13433027 -0.42361 0.06348872 -0.26674476 0.09797254 0.04701319 -0.25763676 -0.2339874 0.23570096 0.2329454 -0.58243686 -0.40419194 -0.13488859 0.6228254 0.07342843 0.3166084 -0.122688346 -0.037098862 -0.1696936 0.0897733 -0.26450732 -0.045431796 -0.0901941 -1.0008206
161 -0.054937053 -0.3669001 -0.504673 -0.87691844 0.18066642 -0.03128523 0.8168822 -0.22469068 0.3172724 0.13596323 -0.16740462 -0.07776584 -0.46091142 -0.07348539 0.104888655 0.27327928 0.66094553 0.28959408 0.081902444 -0.13560963 0.20904577 0.1002515 0.12138666 0.15901218 -0.501223 0.05795268 -0.3805701 0.43697453 0.6133465 0.24098384 0.50908464 -0.18033375 -0.28961584 0.27074423 -0.60399455 -0.42927223 0.35113022 -0.044527754 0.6489596 -0.1536544 0.4768589 -0.17478417 0.028803816 -0.27206033 0.61388606 0.6589316 -0.47885776 -0.16040894 -0.011254801 0.049187932 -0.027482392 -0.004928183 -0.3197637 0.3223663 -0.26308647 0.43025294 -0.12030533 -0.28509936 0.21831274 -0.02853675 -0.19719942 -0.21838345 0.19582026 -0.59052235
206 -0.0087451935 -0.35833734 -0.38867098 -0.54819924 -0.12795278 0.024825681 0.61898196 -0.3389047 0.22974066 0.13771369 -0.2385937 0.20363377 -0.29094914 -0.5563866 0.04993402 0.4677168 0.612064 -0.11168159 0.16972192 0.07894765 -0.08604616 0.14458318 0.42196366 0.12689227 -0.58070755 -0.08791175 -0.15063885 0.45265087 0.71813357 0.059301864 0.72803056 -0.18397185 -0.14541104 0.049437232 -0.31822577 -0.3839032 0.72343796 -0.037710994 0.7575832 -0.19514577 0.5294596 -0.16661596 0.0743666 -0.38487893 0.6556031 0.30193654 -0.39102703 -0.20820095 -0.101751 0.14265315 0.04366946 0.016985053 -0.44481245 0.01128907 -0.23930463 0.23390439 -0.03218226 -0.16430846 0.42876685 -0.07039788 -0.04531616 -0.50732464 0.076510504 -0.54725254
127 0.022074196 -0.19696555 -0.29228228 -0.5775388 -0.12999265 0.03336027 0.6996129 -0.39895496 0.1911815 0.18593651 -0.37742844 0.18080744 -0.28535634 -0.48024714 0.019235166 0.5019355 0.6095911 0.043363947 0.023154994 0.11257164 -0.058361482 0.15572143 0.5467735 0.15567821 -0.5799274 -0.08164566 -0.09349422 0.38962796 0.7119328 0.16112033 0.6969643 -0.19299795 -0.11609884 0.12665118 -0.3265022 -0.38424203 0.6271339 -0.07930004 0.91500634 -0.25790745 0.45872948 0.028003024 0.13638602 -0.41717935 0.5885311 0.34690014 -0.33528867 -0.21500917 -0.17750703 0.20969874 -0.10523389 0.028828647 -0.45448965 -0.082945205 -0.21982728 0.28092575 0.009733302 -0.16720584 0.44938356 -0.0550026 -0.009184705 -0.58377683 0.19967291 -0.5409557
124 -0.017494826 0.38958254 -0.08174794 -0.5361063 0.276713 0.11256446 0.2834278 -0.34718964 0.1016485 0.17138484 -0.3584763 0.18041588 -0.5389386 0.11775297 -0.056835722 0.4529715 -0.00870964 0.65509784 0.45881653 -0.16374509 -0.34516796 0.40264472 0.6521892 -0.038534068 -0.0742092 0.12115761 -0.14174114 -0.70436674 0.43666914 -0.4850121 -0.032028235 0.09924361 -0.39422423 0.7520301 -0.04942699 -0.65994155 0.65040296 0.5159708 0.3878193 0.044599157 0.20262001 -0.1599406 0.07322958 -0.24457663 0.20663396 0.9619197 -0.40144533 -0.40068135 0.09770998 0.55420357 -0.33370668 -0.09853785 0.2267677 0.41277564 0.0083128195 0.91730636 -0.005429938 -0.42540804 -0.07051841 -0.23677303 -0.07056224 0.4471046 0.2584944 -0.68780243
85 -0.04990773 -0.08143011 0.32734758 -0.3095324 -0.4412283 -0.3573984 -0.2068666 0.34432212 0.24383157 -0.07166476 -0.011499779 -0.07498214 -0.16865718 -0.069727354 0.34441113 0.18221404 0.1108621 -0.1175456 0.46331376 0.4279579 0.25756902 0.12681171 0.9159147 -0.49835312 0.36710462 -0.1805881 0.16985661 -0.43021247 -0.27757826 -0.081241325 -0.06476683 -0.09037626 -0.33088547 0.087698475 -0.6261224 -0.48572904 0.648546 -0.12491706 0.3537376 -0.13989624 -0.13718934 -0.36819798 -0.018946191 -0.30458093 0.35314253 -0.16432324 -0.39065042 -0.29181454 0.28674728 0.21801913 -0.59910935 -0.3190964 0.05721311 0.62888396 0.13076968 0.2529511 -0.05548248 -0.10037371 -0.25427276 0.06440439 -0.07751861 -0.12656736 0.10515681 -1.061889
48 -0.0136212045 -0.5611628 -0.34025598 -0.594635 0.6782622 -0.22698724 0.1912212 -0.10734634 0.5389639 0.29262027 -0.4368712 0.31004128 -0.6768778 0.02882905 0.17582558 0.20949164 0.21711606 0.35126022 0.16539972 0.010810405 0.40317369 0.20294279 0.7255575 0.30509454 -0.16946763 0.2865589 0.17934312 -0.24246956 0.19997124 -0.08966125 0.001810329 -0.11890076 -0.59881216 0.11800184 0.19843732 -0.350908 0.2553346 0.09238883 0.30389866 -0.22974588 -0.08142628 -0.33539933 0.02919413 -0.5358416 0.35889497 0.7459443 -0.21001562 -0.076912045 0.10294771 0.27402234 -0.16137037 -0.63729036 0.15554513 0.6139106 -0.10281272 0.707879 -0.0682543 -0.50070804 0.04414407 -0.44846803 0.18502925 -0.08940463 0.23705295 -0.50169307
41 -0.27278703 0.23709859 -0.21197863 -0.20038985 0.20040618 -0.67537475 0.4979217 -0.078073405 -0.23889446 0.068351865 0.43942824 -0.047205083 0.12680762 -0.1951521 -0.02486767 0.2182074 -0.18983018 -0.09775666 -0.65994203 0.5787468 -0.16276982 -0.122252904 0.37323162 -0.25370038 0.42984137 0.08439831 -0.04796562 0.44288066 0.59094334 -0.268542 0.37325358 0.24466112 -0.16211122 -0.39973754 -0.2703614 -0.2713646 0.6405787 0.3000548 0.24185492 0.16904236 -0.3123495 -0.08698246 0.18088855 0.46507218 1.0380512 0.24889137 0.2823357 -0.1422211 0.6710457 0.2919042 0.11825947 -0.3714869 0.19192952 0.29708302 0.25210518 0.7126338 -0.11536993 -0.015956258 -0.1088435 -0.0068691685 -0.34823328 -0.21662095 0.17848535 -0.23465107
196 -0.0060560927 -0.18987758 -0.15432598 -0.6501838 0.414576 0.012399045 0.2973006 0.04356407 0.25899637 0.47704306 -0.22372928 0.31847605 -0.44068533 -0.11437569 0.26476216 0.24600695 -0.0023921698 0.21197404 0.35434884 0.23012502 0.2499403 0.42129332 0.3988435 -0.007065352 -0.07380409 0.21437596 0.24927278 -0.4304952 0.017898869 -0.22116381 -0.102117434 -0.19490057 -0.4830016 0.32912454 0.19094656 -0.58578354 0.42343748 0.14388472 0.40467918 -0.25115126 0.32073054 -0.29078332 -0.0069495407 -0.49332246 0.32192436 0.6071602 -0.30498275 -0.32795852 0.06092344 0.32202908 -0.5364857 -0.27404648 -0.04553352 0.42182723 -0.041424677 0.7437169 -0.11321154 -0.40641055 0.035517715 -0.33789834 -0.028300302 0.073462665 0.043943085 -0.5108537
52 0.31552747 -0.16765046 -0.5018017 0.2125876 0.15204826 -0.37646738 0.4839251 -0.3183161 -0.19228499 -0.2812555 0.49955353 -0.2540255 0.010219897 -0.42017302 -0.043207053 0.47055435 0.1523645 -0.36995825 -0.48586935 0.7103686 -0.18921629 0.1508196 0.35535607 -0.08592161 -0.14938453 -0.027215453 -0.300397 0.5553794 0.51240134 -0.48419008 0.3557805 0.112049446 -0.06328451 -0.7981352 -0.080197655 -0.10107555 0.507912 -0.21597984 0.400594 0.22953737 -0.16248484 -0.24260505 0.26251423 0.47407058 0.6921877 0.250706 -0.33716485 0.08732131 0.11560726 0.23799069 -0.025947645 -0.1709652 -0.035393722 0.120058045 0.2547794 0.53486013 0.052577607 -0.08933975 -0.060312066 0.06428718 -0.40844113 0.15946606 0.12881556 -0.24808808
15 0.21073893 0.026054323 -0.1720173 -0.690837 0.2914402 0.056533795 0.25523505 -0.2612451 0.3707942 0.6559946 -0.33286756 0.36151204 -0.5244364 0.017484492 0.04884206 0.33433884 0.022075154 0.13131477 0.15700082 0.070688665 0.09881978 0.30997416 0.4060605 -0.018792517 -0.21415839 -0.020544376 -0.0068572764 0.0367437 0.2984533 0.17917141 0.30503437 -0.26384953 -0.63812155 0.45456433 -0.19661425 -0.732239 0.53619653 0.34932554 0.79015404 0.08596802 0.40988728 -0.21640599 -0.13655914 -0.773352 0.47314602 0.67426044 -0.4421896 -0.108873226 0.21325198 0.0587906 -0.15820435 -0.13517696 -0.30146593 0.31956115 -0.15200984 0.57134604 -0.052280787 -0.19622636 0.3080525 -0.2060179 -0.27426913 -0.20402257 0.22673963 -0.31438455
27 -0.015189198 -0.1365784 0.24747513 -0.3029982 -0.43933642 -0.47919145 -0.22653802 0.38531834 0.01950749 -0.05486584 -0.039027084 -0.10288178 -0.32972407 0.07248114 0.37963608 0.24807125 0.1820033 -0.12213511 0.33960938 0.4899835 0.13479242 0.13402325 0.80525434 -0.621239 0.3438654 -0.39739928 0.2515436 -0.4291656 -0.17095394 -0.03459669 -0.09044587 -0.027844252 -0.24082552 0.089067884 -0.61158466 -0.52846825 0.6523759 -0.083148696 0.3002775 -0.14476782 -0.09702529 -0.35726404 0.04866224 -0.40870783 0.20395848 -0.27412692 -0.44437075 -0.17770194 0.33357984 0.4132934 -0.69499695 -0.38571662 0.087143496 0.7777434 0.028714174 0.2344375 -0.20943417 -0.050549265 -0.28005216 0.10515862 -0.12554681 -0.06460861 0.023057753 -0.96735615
80 -0.24870479 -0.5457266 -0.5765085 -0.7900995 0.30293578 -0.03048704 0.9713084 -0.2273262 0.15397413 0.28134528 -0.2706934 0.10576371 -0.38367987 0.10474075 0.05419243 0.2590932 0.5808443 0.29120496 0.064535834 -0.19321549 0.21211492 0.23631576 0.14246556 0.0022100029 -0.641211 0.10352788 -0.201983 0.4619646 0.34155253 0.11165602 0.4333063 -0.20585714 -0.31782788 0.22530401 -0.6159901 -0.3310683 0.46840972 0.018761814 0.616892 -0.14636937 0.5016502 -0.2449332 -0.07340972 -0.4661345 0.68877846 0.54465723 -0.5447337 -0.10868671 0.05681992 0.26799527 0.09831573 -0.011233623 -0.24069706 0.27389374 -0.34335926 0.49725425 -0.013045464 -0.26548558 0.20291755 -0.19301768 0.06099914 -0.24488626 0.20245941 -0.5558142
193 -0.064564295 -0.2993259 -0.261468 -0.73646146 0.10295058 -0.24562429 0.57047975 -0.34780964 0.24031396 0.15502925 -0.30278963 0.31211978 -0.6250923 -0.084923044 -0.011416223 0.487425 0.2203367 0.1156299 0.4001752 -0.09781907 -0.08399382 0.092976876 0.08420917 -0.06634076 -0.51289064 -0.11387309 -0.074829884 0.34750658 0.38664088 0.21293147 0.3969725 -0.3336851 -0.58053493 0.2798529 -0.2464516 -0.6449486 0.66892076 0.11984652 0.55649984 -0.17322893 0.49206406 -0.0068334653 -0.058281973 -0.5132584 0.5205494 0.7236027 -0.5841952 -0.19494174 0.05269442 0.11219214 -0.08133597 -0.16777226 -0.38213956 0.20380317 -0.31679773 0.43640733 0.09069554 -0.22187181 0.49671692 -0.036912523 0.037121564 -0.34710088 0.103766344 -0.49011558
184 0.29543477 -0.11575502 0.31821167 -0.44137973 -0.43961906 -0.62296885 -0.2957654 0.27527153 0.41907623 -0.15848157 -0.0036642908 0.08119621 -0.57913244 0.1789326 0.400198 0.17843898 0.113347806 0.0138867 0.3334697 0.5176745 0.4812888 0.15000968 0.45901886 -0.9046647 0.4298841 -0.20818043 -0.12222288 -0.30337784 -0.19235508 0.0038908285 0.010280164 0.24232447 -0.2561995 0.36566687 -0.29166585 -0.7446408 0.6935998 0.15054077 0.072827816 -0.351542 -0.113026954 -0.42642602 -0.015155569 -0.23826672 0.23412041 0.25397027 -0.040553074 0.13922332 -0.10579318 0.6132986 -0.7294645 -0.4072179 -0.26497036 0.5670489 0.19571973 0.1885876 0.024655445 -0.088837944 -0.29405457 -0.27921915 -0.2696546 -0.03086129 0.13205826 -0.76019573
204 -0.35736114 0.10660606 -0.069752075 -0.1267554 0.12474253 -0.28018025 0.3274913 -0.18610378 -0.29901636 -0.36622313 0.20875303 0.0995156 0.3554554 -0.15886874 0.12610374 0.18645738 -0.27180403 0.059581634 -0.1689802 0.68465734 -0.47980258 0.12497916 0.48256376 -0.41197455 0.24099723 0.24115653 -0.049182296 0.45656955 0.5225494 0.06980304 0.46874616 0.30101293 -0.41500053 -0.5151868 -0.43145144 -0.32912034 0.5859108 0.18009974 0.05200125 -0.111171946 0.052053988 -0.039927285 0.16664621 0.5961032 1.1419545 0.39556047 0.15496661 0.19035016 0.74157536 0.6354935 -0.05905727 -0.2765894 -0.009228501 0.33571157 -0.052140225 0.85113454 -0.11240331 0.32405692 -0.20274384 -0.016131718 -0.49269608 -0.24171528 0.18310612 0.2173581
125 0.39689916 -0.48723647 0.39266917 -0.061691143 0.3251747 -0.22310074 -0.17135417 0.078657776 -0.11819242 -0.13644256 -0.3093568 -0.17557573 -0.6026156 -0.11857698 0.5490627 0.080386445 0.5759078 -0.43517372 0.11060664 0.34949607 0.3265381 0.33950102 1.030041 -0.2261281 -0.16494517 0.21799804 0.020867987 -0.48226717 -0.25065717 -0.41458043 0.056737944 0.09831059 -0.30594116 0.23204365 -0.4402017 -0.20528142 0.59252745 -0.58902806 0.45523766 -0.33612955 -0.034114804 0.06946244 -0.017350128 -0.08308502 0.13075848 0.2801686 0.025793884 -0.007895394 0.52874154 0.70548487 0.039685987 -0.57173985 -0.26461318 0.17646883 0.2389411 0.2950212 -0.0037435316 -0.042879313 -0.50833946 -0.41574016 -0.003669253 0.6611132 0.25854695 -0.92463267
91 0.06445161 -0.17506814 -0.21630533 -0.78241396 0.2659545 0.24018587 0.29344833 -0.35856307 0.35951334 0.31886223 -0.42472127 0.3171799 -0.4642868 0.16238262 0.05959539 0.3795126 0.17898682 0.36388966 0.08877981 -0.062402297 -0.14414072 -0.07415429 0.45874572 0.016180215 -0.30820566 -0.15543354 0.090611644 -0.1849754 0.40468657 0.015970794 0.07595434 -0.1538806 -0.5547148 0.4439596 -0.2106468 -0.73544395 0.5201358 0.38059634 0.63550174 -0.15960538 0.39166752 -0.34423307 -0.09853102 -0.76318127 0.30803278 0.5635473 -0.27182606 -0.05828076 0.40187195 0.11272979 -0.1333861 -0.27303797 -0.09093161 0.4237157 -0.09470699 0.8910011 -0.036168043 -0.45269427 0.06427017 -0.49064803 -0.053834885 -0.15931344 0.1757186 -0.3170589
101 0.09693872 -0.31769845 -0.08554742 -0.60318816 0.3628157 -0.15482268 0.09103055 -0.08326794 0.041187547 0.35129634 -0.3225246 0.06832488 -0.6454277 -0.14864708 0.19764899 0.26834044 0.23293422 0.38006338 0.43284258 0.2612969 0.15249307 0.4114358 0.39292443 -0.44788295 -0.037158158 0.14411604 0.09296508 -0.56506044 -0.08023127 -0.34861526 -0.29008925 -0.17986077 -0.5231681 0.42439306 0.09848722 -0.59214777 0.46230394 -0.077106886 0.29417104 -0.055742305 0.31747073 -0.073047586 -0.05340514 -0.5332695 0.06564647 0.49392524 -0.08304628 -0.13328339 0.038010683 0.27918482 -0.53255385 -0.23596893 -0.21026736 0.5077064 0.02200912 0.48197427 -0.09699114 -0.3325463 -0.023465335 -0.13438946 -0.11144896 -0.09598065 0.10806147 -0.36527884
168 -0.021345697 -0.029659169 -0.016976781 -0.26848042 -0.17591429 -0.27829874 -0.08447427 0.22899826 -0.24752016 -0.20400587 0.16070046 -0.5726571 -0.75470126 -0.39914313 0.1314509 0.17839384 0.6840782 -0.18881261 0.4835873 0.39338294 0.6674333 0.37408382 0.6420504 -0.5207998 0.22512533 -0.16685693 0.64689916 -0.47037333 -0.09064081 -0.37048602 -0.027676722 0.14525642 -0.054423302 0.17362492 -0.7920837 -0.324532 0.7525238 -0.22380573 0.34337038 -0.2930111 -0.24685371 0.10760112 -0.022148583 0.14178433 0.18372457 -0.41937298 -0.28023455 0.05981995 0.14344129 0.5168315 -0.5955356 -0.026196675 0.17398453 0.2664513 -0.2988449 0.45085415 0.31596294 -0.099058524 -0.03777226 -0.12799737 -0.029632 -0.22548103 0.20919679 -0.5224228
202 0.7733224 -0.16460475 -0.17173238 0.24826898 0.13459209 -0.14496887 -0.21569233 0.496823 0.21613558 -0.95202565 -0.29752108 -0.46960768 -1.0393115 -0.017708197 0.27990633 0.5005989 0.25967604 -0.0922053 0.6351163 0.568504 0.6580016 1.1410824 0.46864384 -0.28913173 0.28600886 -0.23922315 0.539573 -0.06819203 -0.36039516 0.24134013 -0.3419232 -0.47949073 -0.13510916 0.75127226 -0.99574775 -0.760287 1.1856111 -0.30527794 0.38034636 -0.016362574 -0.04593411 -0.1866469 0.27958512 -0.098612 0.9832948 -0.37973246 -0.49355674 -0.47032353 0.5380286 0.3486235 -0.01053758 0.17881131 0.282915 0.397813 0.2933765 0.84296227 0.26768336 0.16954073 -0.34490442 0.5975073 -0.1853731 -0.26102832 0.15425138 -0.0048749987
29 -0.21715938 -0.46675506 -0.2884247 -0.5975432 0.77539057 -0.13096958 0.10019863 -0.14886552 0.41528222 0.20078382 -0.49907365 0.27841887 -0.51704925 -0.14858584 0.33159098 0.42395574 -0.14424911 0.4712153 0.2665236 0.10762502 0.43536514 0.20907153 0.5506394 0.16469221 -0.23715885 0.30261832 0.32216266 -0.24890576 0.14669386 -0.02673136 -0.053354885 -0.102028176 -0.7190495 0.27898678 0.31824532 -0.4569731 0.25866547 0.19815737 0.3996938 -0.22064748 -0.10912885 -0.3530756 0.14163202 -0.4422957 0.48587695 0.72549504 -0.18318973 -0.26124856 -0.026667038 0.54715186 -0.46154836 -0.5925108 0.20024054 0.6103871 -0.09946402 0.68953633 -0.23827568 -0.46776706 -0.07019951 -0.32682526 -0.06927178 0.078712925 0.030251885 -0.5006256
9 -0.45937082 0.09251946 -0.047311 -0.31868744 0.2740149 -0.4395034 0.28852648 -0.1734845 -0.19097416 -0.39487308 0.0072739306 -0.40241382 0.2790232 0.04102938 0.21517336 0.036249273 -0.16194822 -0.2071517 -0.41640422 0.58954877 -0.05736396 -0.25895143 0.5635713 -0.66333807 0.100926355 0.11613958 -0.09688873 0.43354416 0.430647 -0.17330958 0.5177542 0.12810612 -0.23869233 -0.6467915 0.07370361 0.11906051 0.60250515 0.240663 0.28511998 0.15825815 -0.29125148 -0.19008535 0.26092526 0.5888463 0.9852686 0.5696058 -0.0043739183 0.14621912 0.43997627 0.7958366 0.18886982 -0.23869924 -0.30907413 0.5468734 0.2849198 0.64014196 -0.10755275 -0.08701533 0.1954591 0.20314088 -0.37103906 -0.35611168 0.19123758 -0.0023657652
13 0.29457438 -0.18172354 -0.29792404 0.0075131413 0.30621612 -0.19784518 0.03627958 -0.028670609 -0.5251828 -0.15969607 0.009421827 -0.39766416 -0.42185354 -0.34236854 -0.045675665 0.36066633 0.57791895 -0.06082834 0.32620594 1.0192188 0.1437569 0.5917045 0.6318561 -0.54257375 0.08881857 -0.16134828 0.18573071 -0.2538401 -0.3217687 -0.30609837 0.12038686 0.24719349 -0.3046388 -0.10419949 -0.19601691 -0.023785971 0.3925771 -0.546886 -0.22154404 -0.3418284 0.10124339 -0.21844102 0.20032683 0.18772167 0.19030452 0.22043037 -0.22039637 0.22758223 0.060447678 0.06822495 0.0067038382 -0.54449487 0.11015556 0.04565645 0.031454876 0.3301605 0.19565585 0.33419028 -0.18963696 0.027025672 -0.17172669 0.101331905 0.26697353 -0.93267334
133 0.15098122 -0.25332713 0.09498614 -0.56158775 0.07144018 -0.14234252 0.02560865 -0.16873847 0.08661156 0.3191876 -0.2394292 0.06604308 -0.48552325 -0.040308747 0.10828591 0.37656704 0.45557603 0.23833422 0.456662 0.30554506 0.2863495 0.36775994 0.30264747 -0.65044224 0.12561493 0.16767783 0.0737871 -0.6738378 -0.19989026 -0.33004314 -0.31810609 -0.13000996 -0.34010637 0.5146129 0.084023364 -0.411199 0.6157684 -0.09428116 0.23410201 -0.054949086 0.38984564 -0.028388556 -0.13363197 -0.47805905 0.07637788 0.6043305 -0.13884352 -0.12260114 -0.038786322 0.1785882 -0.40363997 -0.20119278 -0.13216609 0.6817366 0.16559279 0.48559955 -0.003270024 -0.22726692 0.097945735 -0.3625 -0.34830058 -0.26795727 0.16318087 -0.37653643
79 -0.14262408 -0.22046797 0.173765 -0.23018172 -0.49409494 -0.40247464 -0.32551628 0.4864756 0.12924285 -0.09280087 0.15133566 0.069134906 -0.30227166 0.1287853 0.33011168 0.2754618 0.046979066 -0.19376475 0.4569375 0.5184745 0.077658005 0.12684976 0.77291423 -0.7694509 0.261321 -0.38726705 -0.024372496 -0.4476736 -0.2140238 -0.08526626 -0.22546865 -0.07392372 -0.38421577 0.2605503 -0.6763309 -0.5156849 0.5840505 0.011959142 0.40568104 -0.25183836 -0.17284265 -0.32048783 0.11465902 -0.24186333 0.18116288 -0.09186937 -0.31757048 -0.37059692 0.28792566 0.30386916 -0.6653364 -0.4191412 0.09473489 0.6402291 -0.031190062 0.29840213 -0.26197731 0.038824152 -0.32209018 0.07250271 -0.31052583 -0.103758946 -0.049576886 -1.0704103
78 -0.03903426 -0.18787098 0.07551877 -0.3518281 -0.29800048 -0.42985427 -0.4159589 0.28039393 0.09504463 0.038163297 -0.061026298 -0.12512411 -0.38898867 0.24711446 0.32102582 0.22256842 0.12635237 -0.24280433 0.20015402 0.54366696 0.028087253 0.051296905 0.7153507 -0.76453483 0.3717204 -0.29995778 0.066701315 -0.5048697 -0.23620701 -0.14474978 -0.25018415 0.0033471223 -0.4847363 0.42337534 -0.5689397 -0.6135646 0.5032351 0.024061019 0.36933443 -0.43415445 -0.17169788 -0.5043767 0.115887135 -0.28496298 0.017000936 0.020607805 -0.31838152 -0.17129683 0.18189189 0.20525686 -0.4998055 -0.41221285 -0.29836792 0.59146154 0.072857395 0.36578923 -0.066689834 0.058635 -0.24839513 -0.0010165193 -0.38052937 0.012855653 -0.068718195 -1.0436836
96 0.29817447 -0.35109702 -0.40386266 -0.4910872 -0.21542816 -0.14396518 0.6326337 -0.3489365 0.062313348 0.07778671 0.08286589 0.16476636 -0.19316284 -0.48753148 -0.09565146 0.5651028 0.56216097 -0.24738875 0.09961729 0.19746779 -0.28413603 0.27460665 0.5953552 0.07419165 -0.32062978 -0.17516162 -0.19559166 0.44784415 0.8837854 -0.10459684 0.6077112 -0.17276299 -0.17366588 0.050017726 -0.24207143 -0.24058056 0.5088047 -0.055480126 0.65715927 -0.08814907 0.59193456 -0.09786039 0.039602775 -0.4390347 0.61431015 0.40598762 -0.5399331 -0.17720081 -0.10304144 0.1179506 0.0390353 -0.09890342 -0.5952654 -0.17167775 -0.39932325 0.28519988 0.001151864 -0.13559748 0.5457455 -0.121173516 0.053998366 -0.5144819 0.07011738 -0.5766026
191 -0.047428302 -0.29322672 -0.18791498 -0.7367025 0.15624544 -0.20691746 0.6293414 -0.5474021 0.15913995 0.3903585 -0.42861974 0.21223626 -0.542219 0.12804013 -0.048475325 0.28018165 0.1965655 0.1402482 0.24556072 0.022182614 -0.12915306 0.08205053 0.09849673 0.06615037 -0.40748984 -0.068308026 -0.047819562 0.18494031 0.32432002 0.028668772 0.4468358 -0.13853088 -0.6087609 0.35663986 -0.20266777 -0.62079036 0.74657005 0.13042727 0.5026419 0.015247309 0.48917148 -0.054425452 0.046285708 -0.5901865 0.5123204 0.66509324 -0.6682924 -0.24884342 0.04319408 0.014974105 -0.10772111 -0.10721075 -0.34614748 0.20542952 -0.29727718 0.48674348 0.09138273 -0.3135177 0.4754267 -0.21145274 -0.031785946 -0.35778475 0.18070188 -0.5210086
31 -0.11942723 0.10533246 -0.15088585 -0.25243038 0.12444469 -0.12197635 0.5265837 -0.1947837 -0.7861743 -0.47577345 0.4713099 0.0846464 0.035249807 -0.5298041 -0.5808191 0.94070226 -0.3023115 -0.51399034 -0.23046486 0.87268114 -0.256847 0.16243954 0.68419504 -0.15298705 -0.3654439 -0.55212843 -0.18864162 0.28445074 0.80417544 -0.5159878 0.07615171 -0.07518458 0.12526527 0.06439052 -0.55972296 0.003156294 0.5888559 -0.4634433 0.3774409 -0.3759015 -0.058273572 0.08711622 0.47778612 0.11932372 0.8624552 0.20077145 0.054740064 0.47038135 -0.5587972 0.50437546 -0.16523044 -0.57774115 -0.5587791 -0.3845002 -0.017545648 0.77069956 -0.40650654 -0.37490252 -0.16621827 -0.69617516 -0.020592514 -0.28331658 0.10182583 -0.92576647
33 0.123194866 -0.105867706 -0.1771673 -0.7512072 0.32814956 0.0808092 0.21123788 -0.24125664 0.4044258 0.6653061 -0.40636367 0.32524234 -0.4040547 0.06651204 -0.031568654 0.49957898 0.11297297 0.15602866 0.12620439 0.12227498 0.13073184 0.1962552 0.38746133 -0.031231556 -0.21424519 0.01315937 0.004767524 -0.0024386048 0.19061044 -0.052286197 0.26512066 -0.3506894 -0.520218 0.43636018 -0.050662417 -0.67452735 0.6315182 0.3804081 0.7585673 0.026833303 0.24998333 -0.11659608 -0.066564746 -0.7292056 0.3729422 0.7274365 -0.47593716 -0.14339446 0.19716942 0.055327434 -0.21774787 -0.07775922 -0.3242841 0.3607833 -0.25600198 0.5054482 -0.119441316 -0.19774544 0.28050026 -0.17293572 -0.11539012 -0.21635595 0.33434567 -0.4004621
169 -0.07476422 0.09865437 0.027596476 -0.34179506 -0.022410035 -0.34355056 -0.08935235 0.11502641 -0.28237182 0.020687355 0.18315294 -0.66298974 -0.72221583 -0.45637 0.17156467 0.21714877 0.5840477 -0.08593321 0.5392432 0.48126504 0.6774018 0.46586695 0.7030197 -0.4739652 0.2392726 -0.13988765 0.74456066 -0.27725324 -0.2250431 -0.39030582 -0.018605998 -0.07376676 -0.16165787 0.1367604 -0.7155562 -0.29440755 0.6652628 -0.11028111 0.33175462 -0.28436372 -0.3639227 0.10884593 -0.032417733 0.051488325 0.15211958 -0.3859474 -0.47092882 -0.08674001 0.1829187 0.51698506 -0.52833503 -0.059731174 0.045663744 0.28539068 -0.32258317 0.43211687 0.36392236 -0.070373915 -0.039062016 -0.079549216 0.063141204 -0.107559465 0.20776592 -0.58626896
175 0.106026374 -0.34910527 -0.52665484 -0.40261793 0.13388772 -0.2663353 0.37107202 -0.09648836 -0.11827724 -0.22024813 0.34116417 -0.19117029 -0.29140297 -0.20801236 0.1570719 0.35629565 0.47001457 -0.34226695 -0.35238212 0.20900075 -0.29105526 0.2102836 0.41009575 0.15309466 -0.1728693 -0.1063935 -0.4323315 0.4109126 0.49009758 0.23512913 0.7929873 0.2357399 -0.3658387 -0.16655801 -0.6872058 0.09219053 0.44809726 -0.47666183 0.1660495 -0.25000662 0.049338166 -0.18017568 0.117804565 0.1457777 0.547943 0.23959891 -0.5491235 0.050376333 0.10817637 0.22980674 0.29571155 -0.13699293 -0.27926415 -0.26734614 -0.31860366 -0.071610846 0.08192495 -0.18160623 0.14359267 0.067834824 0.02661743 -0.46323535 0.76169723 -0.24213806
68 0.15782967 -0.0951142 -0.2827582 -0.29684913 -0.17876516 -0.15316238 0.59763503 -0.3655465 -0.2421711 0.027841868 0.2565157 -0.08499577 -0.13847819 -0.44889176 -0.10976739 0.3664664 0.4474574 -0.5539055 -0.29700777 0.46781215 -0.26351327 0.15550844 0.27272704 -0.14669016 -0.27509618 -0.40814093 -0.1882581 0.50602907 0.61552125 -0.097737506 0.5920037 0.096212074 -0.5252858 0.11189033 -0.4863902 -0.11290499 0.50816035 -0.48106048 0.55620676 -0.13059334 0.5702453 -0.119320475 0.055464033 -0.2797565 0.67043114 0.2977501 -0.35051826 0.08892196 0.067926235 0.22786362 0.14207174 -0.14570802 -0.70872694 -0.42744407 -0.3303133 0.22878955 -0.2241273 -0.099052064 0.3980327 -0.04949699 0.07057003 -0.1768486 0.2861547 -0.34808773
135 0.28485268 0.03535493 0.13149992 -0.33671093 -0.004595871 -0.44616774 0.028643427 0.025801448 0.24575827 0.06466427 -0.12654093 0.4554448 -0.44252366 0.22093257 0.19456446 0.20173477 0.43238032 0.24986257 0.29139712 0.27481717 0.41413668 0.3508891 0.50216955 -0.6217609 0.24499007 -0.09469333 0.09325554 -0.4638873 -0.36105958 -0.10874918 -0.3181696 0.10495946 -0.35557505 0.38301423 -0.11596719 -0.3923878 0.72371846 0.023280598 0.23349597 -0.0459705 0.017087465 -0.22497848 -0.009203594 -0.33900613 0.123576544 0.37034783 -0.038649544 -0.040354375 -0.09059185 0.48254687 -0.4677091 -0.3682907 -0.29585063 0.5826969 0.19727069 0.20083064 -0.01395694 -0.27425465 -0.10761385 -0.43134618 -0.028578088 -0.19049935 0.29533827 -0.6279008
144 0.09493737 -0.039798923 -0.19993663 -0.7135906 0.37686256 0.0660045 0.22733717 -0.32421532 0.37218297 0.53668374 -0.3871991 0.36030895 -0.42568508 0.17670017 0.005971887 0.4096218 0.121650495 0.14162047 0.19781925 0.08337424 -0.012177447 0.23797324 0.4427154 -0.04309655 -0.20800959 -0.009078031 0.03940683 -0.044560667 0.11831156 0.16954613 0.37089568 -0.31890357 -0.52231497 0.48391414 -0.10944719 -0.82867837 0.64124054 0.2962031 0.7698524 0.09201696 0.3761646 -0.14531629 -0.17148304 -0.7940929 0.3650837 0.68176603 -0.38716632 -0.18008816 0.15334219 0.11311143 -0.100968175 -0.0682799 -0.2676214 0.4698428 -0.2510309 0.6261482 -0.07784439 -0.16814958 0.44935733 -0.26338455 -0.19707467 -0.15367861 0.4416284 -0.45507875
136 0.013838245 -0.277735 -0.17293072 -0.8226371 0.5334547 0.053735394 0.22221349 -0.21603815 0.4744208 0.3332154 -0.33810005 0.24459702 -0.5426892 0.15927337 0.09120406 0.14057223 0.35377425 0.4251772 -0.28267825 -0.21924053 -0.07358784 -0.036307316 0.5469822 0.21899338 -0.34214684 -0.05453078 0.082405955 0.022100644 0.26719716 0.27390283 0.0857882 -0.076585256 -0.694112 0.35224205 -0.15009995 -0.6052237 0.44843712 0.19952801 0.5717417 -0.04667996 0.33177635 -0.051921412 -0.15022114 -0.68857414 0.5985519 0.67063564 -0.3475375 -0.0649903 0.101200245 0.13703865 -0.024445258 -0.24786347 -0.18726769 0.40134475 -0.28958136 0.8978954 -0.08166249 -0.3928877 0.30289236 -0.405131 -0.1431078 -0.3385368 0.29382366 -0.4572203
98 0.37038305 -0.019069871 -0.28560668 -0.26023462 -0.30455178 -0.1102385 0.6665725 -0.2620484 0.016601581 0.00062436034 0.29401404 -0.02129017 -0.2481822 -0.5018922 0.042643286 0.48281696 0.47080877 -0.60801077 -0.25334737 0.269787 -0.30011028 0.15502597 0.41270402 -0.10487758 -0.26082975 -0.44017422 -0.12517634 0.5024672 0.7209984 -0.284585 0.47465396 0.024717188 -0.41396126 -0.06059163 -0.51210797 -0.1561005 0.42293552 -0.30120143 0.67443913 -0.13245863 0.51151675 -0.24072106 0.09744973 -0.29030675 0.7867097 0.26118279 -0.41120058 0.05421838 -0.10414021 0.1336174 0.2476349 -0.1625987 -0.8110306 -0.31005147 -0.30782768 0.32693505 -0.059286825 -0.15985635 0.5079509 -0.09157039 0.0007513687 -0.33191735 0.19838788 -0.31214422
57 0.1057742 -0.6363864 -0.9338538 -0.51412815 0.086329035 -0.03963646 0.29296687 -0.22844107 0.037944924 0.04746593 0.44655907 -0.036494672 -0.13043661 -0.17129503 0.033904128 0.5949589 0.33612746 -0.23624383 -0.6037931 0.34990063 -0.078352965 0.21005288 0.48549342 0.046872035 -0.3190726 -0.50197244 -0.35749847 0.5404531 0.4935413 0.42589384 0.8698419 -0.025619002 0.031192457 -0.1067817 -0.5685845 -0.18938161 0.26586378 -0.38609755 0.22451103 -0.3037962 0.3759317 -0.30452314 0.06981341 -0.15185423 0.8486146 0.101192474 -0.5067028 0.067864716 0.15717286 0.22684848 0.288732 -0.14006355 -0.34598082 0.20011137 -0.23976721 -0.09021068 -0.0079679005 -0.32999772 0.188365 0.14915168 0.08946943 -0.22652553 0.55120164 -0.25099826
173 -0.17308113 0.014005301 -0.09615436 -0.29837376 -0.114822865 -0.18847558 -0.066685624 0.44831055 -0.23398045 -0.23122281 0.23702309 -0.44363973 -0.5101435 -0.193561 0.17809947 0.30873585 0.39296547 0.017456813 0.33336195 0.48648155 0.47964886 0.47532567 0.63999534 -0.5621929 0.3577056 0.038276214 0.733182 -0.51119274 -0.1623829 -0.23987897 -0.17095685 0.08181746 0.0040328717 0.10334837 -0.99322766 -0.26988617 0.98705876 -0.36699542 0.39609453 -0.28563485 -0.08578955 -0.07143612 -0.24751207 -0.028431991 0.3374084 -0.2154756 -0.38045606 0.010725123 -0.14572054 0.48870066 -0.82667613 0.10571984 0.09370372 0.56184375 -0.024602802 0.20311916 0.34627724 0.021106016 -0.21201137 -0.08716976 -0.024293158 -0.1032502 0.1320136 -0.52724844
195 -0.24476507 -0.44337282 -0.5781767 -0.9299597 0.30528527 -0.09194473 0.8599029 -0.34315065 0.32711563 0.20825839 -0.10557562 0.10945914 -0.42853445 0.1295665 0.029056221 0.269796 0.58761364 0.27448225 0.111846864 -0.15024641 0.15189627 0.07604246 0.23050499 -0.0277261 -0.56051284 0.11212507 -0.20434822 0.52786016 0.39666232 0.19939499 0.3528976 -0.1695582 -0.4894022 0.13319348 -0.57842624 -0.2249972 0.49495387 0.062312283 0.6353191 -0.09812907 0.44887468 -0.2252079 -0.07994249 -0.52928597 0.58729213 0.5995165 -0.48667476 -0.019907814 0.004944351 0.34342977 0.16110949 0.16696545 -0.25243917 0.2971067 -0.28000066 0.50302035 -0.032786638 -0.37459707 0.14627466 -0.16170093 0.16932525 -0.2839826 0.2670292 -0.6009925
110 0.23468605 -0.09353941 0.05039543 0.09538031 -0.32630587 -0.24115455 0.16966604 -0.053809512 0.16243903 -0.23127072 -0.3564553 -0.12682757 -0.83859867 -0.40362135 0.20424859 0.05356745 0.4835288 0.4093771 0.10159458 0.60153735 0.38180083 0.0040010056 0.78085953 -0.48261252 0.79534775 -0.27051723 0.1812282 -0.5996397 -0.5335351 -0.31809676 0.020486856 -0.23004736 -0.022039076 0.13777985 -0.28338444 -0.41315013 0.6758408 -0.45362663 0.13283272 -0.08595891 -0.047242537 -0.45199937 0.13911036 -0.2516446 0.38506627 0.027985906 0.13855614 -0.05704252 0.044085838 0.5452418 -0.15633203 -0.09247619 0.18787108 0.17805108 -0.33431768 0.31241432 -0.27194086 -0.16868375 -0.2168993 0.21239269 -0.041746944 -0.32559434 0.19607037 -0.8734223
103 0.16653883 0.011043832 -0.3379356 -0.18353271 -0.20046544 -0.07405272 0.6586133 -0.3741433 -0.13382128 0.07860757 0.23963556 -0.07779133 -0.17514801 -0.46148562 -0.026752582 0.46089384 0.5028988 -0.5694869 -0.23445842 0.49586076 -0.3088891 0.16634518 0.31884128 -0.09298606 -0.17758654 -0.42610848 -0.0693978 0.59050095 0.5748815 -0.19333433 0.53560805 0.043438345 -0.5100894 -0.038554985 -0.45041552 -0.1137157 0.5639992 -0.47300652 0.60928845 -0.2236752 0.42939362 -0.15770757 0.105496205 -0.28885546 0.6843058 0.2566589 -0.3737774 0.055271797 0.12537107 0.18433377 0.2916442 -0.2275275 -0.8002904 -0.46419048 -0.21923356 0.2503632 -0.23794939 -0.043768827 0.46628147 -0.26562747 0.17253676 -0.28592506 0.14620757 -0.375294
39 0.25110734 -0.31761917 -0.62110114 -0.43226114 -0.08063426 -0.013822527 0.41045398 -0.16753107 -0.13344412 -0.08179906 0.24960493 -0.09558164 -0.12339916 -0.1769673 0.113571234 0.5743354 0.44273838 -0.21595162 -0.20825914 0.26213318 -0.11443015 0.100847796 0.51633435 0.09060167 -0.35587403 -0.39392143 -0.29675326 0.6281524 0.67079586 0.27382168 0.7869116 0.119368434 -0.27313495 -0.058321733 -0.706992 -0.12328454 0.2391654 -0.41154885 0.39966264 -0.30869707 0.084705666 -0.15888618 -0.04841107 -0.13103935 0.789128 0.34587643 -0.636253 0.2405272 -0.00021280091 0.0693467 0.2850877 -0.29511288 -0.24996221 -0.09540915 -0.3792144 -0.14832951 0.045243107 -0.33532134 0.12754264 -0.16794196 -0.18654202 -0.21890473 0.64448524 -0.47414026
138 0.016229386 -0.072281495 -0.29998678 -0.58400905 0.14646813 0.23477092 0.0340592 0.08100546 0.43000922 0.4748889 -0.4796061 0.2863803 -0.3812942 -0.23940356 0.24035983 0.49087375 0.004303221 0.028362082 0.1522719 -0.044038147 0.37985703 0.3649431 0.17169696 -0.17775112 -0.329234 0.27337036 0.13960071 -0.28926772 0.060030915 -0.19098555 0.10152887 -0.26923478 -0.616123 0.3203044 0.21354288 -0.653945 0.5776774 0.078346066 0.6393736 -0.14429003 0.47410044 -0.31935447 -0.13086173 -0.61463654 0.33562914 0.67987657 -0.3682637 -0.315109 0.20919146 0.11593988 -0.32922298 -0.32944953 -0.3743745 0.44980073 -0.12094997 0.71382064 0.05392265 -0.19126171 0.056318257 -0.32151258 -0.09943504 -0.13999505 0.1402737 -0.538323
192 -0.13695751 -0.47209728 -0.41978195 -0.7986016 0.3906717 -0.14518054 0.49736106 -0.2747655 0.2603091 0.35012046 -0.34020957 0.053562228 -0.4381458 0.18095732 -0.05715123 0.31940532 0.40095535 0.44413012 -0.028343016 -0.12889358 0.074836925 0.023651026 0.20305452 -0.097670056 -0.5435663 0.110393934 -0.0343625 0.2214336 0.34834775 0.08576619 0.60195345 0.033555266 -0.5333849 0.17204355 -0.4557041 -0.31347716 0.46650898 0.21901059 0.6331039 0.026154328 0.40937585 -0.2570172 -0.1362448 -0.750229 0.5115205 0.82149315 -0.5910064 -0.1722044 -0.14026947 0.29024857 0.03315569 -0.06625718 -0.23376837 0.2595853 -0.34216356 0.6647813 -0.06906356 -0.29152948 0.24277362 -0.29812473 0.026663657 -0.24251704 0.18017182 -0.58346903
4 -0.06014549 -0.29670486 -0.25418362 -0.7744413 0.2426174 -0.23520444 0.39037955 -0.56310904 0.309492 0.39874482 -0.4676442 0.3187989 -0.48018444 0.10555411 0.02646789 0.27217612 0.18491578 0.16794644 0.22662887 -0.004387302 0.026186306 0.09673751 0.18873365 0.06480619 -0.36864516 -0.18289009 0.026824035 0.1692083 0.33077672 -0.03835164 0.35735154 -0.21992847 -0.54621875 0.44288778 -0.23671837 -0.53701705 0.62276894 0.2098833 0.7029043 0.009010553 0.42318347 -0.1651568 -0.07011378 -0.67919654 0.42940974 0.62903064 -0.6163231 -0.032949496 0.07066872 -0.011094604 -0.13538124 -0.3501208 -0.49752334 0.38683203 -0.14071769 0.48553753 -0.110672556 -0.28816947 0.35961464 -0.22911905 -0.006076905 -0.28652754 0.24590246 -0.44192195
77 -0.25817612 0.059174024 -0.07276993 0.07532996 0.36032838 -0.4763973 0.39540717 0.008837242 -0.026019176 -0.4382561 0.19319938 -0.10581393 0.18043771 0.12969974 0.15460429 -0.0071061375 -0.17630455 -0.08311866 -0.44915065 0.7685918 -0.24259377 0.06762373 0.55318475 -0.3452349 0.02885726 -0.12468954 -0.15295486 0.5026145 0.53247887 -0.13092974 0.591092 0.22451769 -0.2832319 -0.5452908 -0.27257368 -0.120051384 0.49465576 0.14229536 0.24975564 0.26253086 -0.0362947 -0.17446776 0.10145251 0.47755185 1.0678309 0.44110036 0.07830622 0.0072105783 0.5299414 0.65857893 0.09363937 -0.28820193 0.119793884 0.5587566 0.3794618 0.6587939 -0.2330236 -0.056193165 0.074032135 -0.025326338 -0.29770374 -0.32794723 -0.073354796 0.047440723
165 0.19039373 0.29888523 -0.384065 -0.7801376 0.8329115 -0.39016762 0.039176088 -0.55556446 0.36763197 0.18738742 -0.49223173 -0.035356093 -0.89671874 -0.038307782 0.06115562 0.25129944 0.105940424 0.82941717 0.24274682 -0.28149337 -0.31492895 0.5594268 0.8066344 0.036341567 -0.0066683167 0.031398825 -0.51142025 -0.6482687 0.48908877 -0.5702161 0.17211615 0.10731157 -0.09859343 0.23992646 0.0038574357 -0.4653215 0.54347897 0.36749735 0.44712138 -0.21174465 0.06970137 -0.435576 -0.13323663 -0.021014892 0.34729987 1.123046 -0.4999235 -0.116249196 0.6111979 0.48160625 -0.14407703 -0.16914292 0.0768541 0.25854626 0.35642028 1.0215781 -0.22354634 -0.80150217 0.0918249 -0.68718314 0.5005152 -0.13972045 -0.04407152 -0.55974317
194 0.08411409 -0.5529694 -0.2235713 -0.41251576 0.43165436 -0.34102145 -0.7165952 0.18720075 -0.45609748 -0.2703946 0.17585418 -0.42345604 -0.6173085 -0.32984728 0.099461116 0.18222949 1.0946634 0.34252948 0.10414389 0.9991905 -0.027269464 0.17977373 0.5996782 -0.1922741 -0.23446609 -0.33892214 0.048344444 0.0012957678 -0.37969217 -0.6400123 -0.2614658 0.0673375 -0.451881 0.19960916 -0.111091666 -0.29745653 0.8091405 -0.23653734 -0.029080825 -0.7700985 -0.14076823 0.22749081 0.13841209 0.0044844425 0.048891593 0.36954513 0.31074938 0.09064991 0.17743644 0.5364163 0.040879935 -0.066501394 0.30675915 0.00963881 0.5973729 0.51851076 0.4764035 0.19154847 -0.13554044 0.39095765 -0.32642838 -0.18018755 0.01478367 -1.1621922
17 -0.09221027 -0.39566752 -0.5106493 -0.9007392 0.37086397 -0.15522125 0.6957315 -0.32907215 0.29272184 0.38811105 -0.3048133 -0.051535726 -0.4346242 0.13382277 -0.04113301 0.32944337 0.50938857 0.48933297 -0.11088753 -0.067964286 0.1556174 0.06389219 0.14664935 0.078189865 -0.5329922 0.20673375 -0.10785751 0.39621675 0.25043774 0.22380923 0.35900047 -0.031019628 -0.3999894 0.18965954 -0.51606715 -0.39012387 0.38628075 0.14879255 0.64009476 -0.09579057 0.3868621 -0.2966555 -0.10152595 -0.48574042 0.65110177 0.82018656 -0.6153641 -0.029185522 -0.08169615 0.4245466 0.1295725 0.06413472 -0.2912519 0.15204453 -0.39514393 0.52615076 -0.04696353 -0.27716872 0.22883965 -0.23561528 0.002859857 -0.24679804 0.24244386 -0.6537702
132 -0.016958661 0.013739549 0.2257489 -0.34684008 -0.39205566 -0.3377533 -0.072708294 0.27411994 0.05295006 -0.09635302 0.0065043103 -0.12396675 -0.30967274 -0.0065812683 0.27831417 0.18389025 0.09629116 -0.11400586 0.47616553 0.7799656 0.12991264 0.11200333 0.8101364 -0.4272329 0.36670738 -0.2746063 0.14905217 -0.39076605 -0.37776047 -0.14969514 0.10263171 0.085699424 -0.20032601 0.09567518 -0.884042 -0.5416733 0.6162097 -0.13416821 0.27489784 -0.08265021 -0.13618387 -0.23042557 0.04856431 -0.36934638 0.078084536 -0.27051097 -0.49277756 -0.24777944 0.31990546 0.25763246 -0.7833741 -0.20682943 0.20603897 0.669828 -0.011896349 0.2310942 -0.09944631 -0.006443493 -0.18922657 0.26063544 -0.26697883 0.017900076 0.2642556 -1.1014224
32 0.44630748 -0.19967477 -0.3754635 -0.3566037 -0.15054275 -0.060876634 0.65800595 -0.22708286 -0.07067315 0.0172061 0.30049816 0.10107488 -0.1444493 -0.56868345 -0.09681008 0.49216956 0.71958977 -0.33271483 -0.121229075 0.14823051 -0.3145751 0.14087808 0.5347074 -0.091012985 -0.2642276 -0.32560197 -0.1306441 0.43832207 0.67769617 -0.2512624 0.4484467 -0.05547367 -0.26874816 0.00028934376 -0.32514074 -0.20942304 0.44313058 -0.10401295 0.5963176 -0.21974677 0.71837854 -0.17175935 0.059021935 -0.29301092 0.7493838 0.45888048 -0.6042741 -0.10640238 -0.14436752 0.023474235 0.29954383 -0.20824157 -0.74795973 -0.051993273 -0.15144853 0.20075053 0.0569419 -0.2952261 0.54268116 -0.13460071 0.06214925 -0.40432048 0.08154938 -0.33807102
186 -0.5449992 0.15104489 -0.2950578 -0.5406663 0.14143014 -0.47161344 -0.017231263 0.16898972 -0.19035769 -0.39647862 -0.042245578 0.22488609 -0.18780226 0.22682987 0.29613155 -0.069026954 -0.08058888 0.17873342 -0.14917688 0.8652124 -0.49570894 -0.06363536 0.11477617 -0.36410245 0.54931563 0.23798615 -0.22244434 0.50078326 0.4305379 0.10164727 0.47374082 -0.27234983 -0.3706236 -0.15446788 -0.4262122 -0.32440972 0.8079791 0.47903854 0.6035711 0.2276379 0.26332715 0.034164846 0.8314565 0.55866 1.4255258 -0.10891225 0.22984928 0.4477841 0.54370064 1.0426733 0.594614 -0.15545696 -0.063792184 0.8597824 0.38630536 1.0466175 0.20159896 -0.19905701 -0.16167277 -0.34105918 -0.41845244 -0.21802178 -0.15700494 -0.1763704
35 -0.2565283 -0.12941809 -0.14657056 -0.10238522 -0.6333332 0.07115806 0.52935237 -0.18323636 -0.24372345 -0.49479568 -0.21658371 -0.5258147 -0.21220633 0.48857102 -0.31418616 0.31621635 0.6561166 -0.042393666 -0.07914355 0.011848633 0.20946081 -0.27800423 0.97029495 -0.25661492 0.45353472 -0.011105553 0.3969283 0.5279227 -0.016031872 -0.21234274 -0.22396117 0.029145684 -0.07708823 -0.41296124 -1.1113924 -0.5567507 0.67077225 0.7000965 0.6564116 -0.6537608 -0.5327834 -0.250666 -0.055954695 -0.17425835 1.0299058 0.03746568 0.20296021 0.189076 0.02377883 0.35852876 -1.4501855 -0.19325194 0.0224173 0.9942294 -0.014898487 -0.1882575 -0.385691 -0.3529096 0.6705618 -0.026582 -0.11053015 -0.38792774 -0.004202905 -1.3199382
143 0.1831124 0.001339867 -0.083835766 0.2331576 0.364831 -0.27662557 0.1718298 -0.076457195 -0.44709113 -0.030474802 0.03139102 -0.44659498 -0.53102094 -0.29190254 0.07907574 0.31744173 0.49390224 -0.17456183 0.01711068 1.0354007 -0.22538374 0.50723827 0.86455387 -0.6722458 0.035869036 -0.34415165 0.041965876 -0.28909442 -0.23106064 0.0716158 0.08572957 0.00678178 -0.30909458 -0.08843116 0.010269393 -0.066756934 0.48192915 -0.7802148 -0.12011629 -0.32255375 0.2208365 -0.081775814 0.293617 0.353995 0.26097858 0.025625339 -0.2603399 0.12933277 0.13371411 -0.06544601 -0.057227105 -0.57630956 0.32369372 0.0011600408 -0.053275462 0.21036711 0.121934645 0.21109189 -0.12561178 0.027957173 -0.44242418 0.23714545 0.7361758 -0.8224328
58 -0.042733584 0.0399874 -0.044098362 0.123678096 0.32513213 -0.22090332 -0.030069025 -0.2539341 -0.06368515 -0.23826647 0.02685324 -0.28123322 -0.76651704 -0.39025712 0.011595438 0.681122 0.585994 -0.07589514 0.094867095 1.0288534 -0.0792035 0.46938196 0.8370166 -0.50711596 0.27071264 -0.04679573 0.18833148 -0.39696553 -0.3023014 0.286965 -0.0032062833 -0.0603963 -0.38752005 0.12877204 0.27059528 -0.006312661 0.346898 -0.5130296 0.14821313 -0.1589983 0.22089148 -0.27027082 0.37644744 0.25433624 0.25363442 -0.0677056 -0.3985711 0.26602376 0.51226985 -0.037673205 -0.28330263 -0.7371367 0.22828127 -0.015863277 -0.44371793 0.2255607 0.20389037 0.1187326 -0.44543472 0.08016596 -0.044051472 0.03628317 0.65749586 -0.9622558
89 -0.38464782 0.019137165 -0.114399105 -0.50293374 0.11070408 -0.52640104 0.17073978 -0.048777003 -0.19069919 -0.51249915 0.019664643 0.006871366 -0.37502584 0.14563964 0.381187 -0.10118722 -0.10608478 -0.19965675 -0.49397862 0.664545 -0.33203217 0.010281528 0.18764138 -0.19450258 0.3096535 0.09300565 -0.33937743 0.38950303 0.51380426 -0.11097017 0.48103008 0.03620948 -0.26178315 -0.22400452 -0.28104684 0.098303996 0.6406299 0.23932792 0.23159947 0.054055467 0.0292415 0.04200727 0.48878244 0.69517857 1.2089779 0.23055848 0.16378915 0.21726887 0.4565431 0.76014435 0.24335001 -0.16736428 0.12502418 0.6803085 0.29364094 0.92432445 -0.31797692 0.004664706 -0.08977738 -0.017974807 -0.60662866 -0.16865362 -0.0047316183 0.086265825
38 -0.020469442 -0.5784029 -0.31729168 -0.67251396 0.60551167 -0.09343108 0.20077515 -0.19581294 0.71443456 0.32466972 -0.5023128 0.3129678 -0.5457754 -0.0154317925 0.15916072 0.09171533 0.10566395 0.42587635 0.1417261 0.114142776 0.196249 0.069028065 0.7240895 0.18443309 -0.15884508 0.1877712 0.21962719 -0.2520989 0.29607472 -0.034624577 0.008858119 -0.24422862 -0.63088596 0.09478255 0.02409714 -0.4812163 0.09178856 0.21077925 0.3314237 -0.18047905 0.09699948 -0.46020392 0.112093605 -0.60630673 0.61281484 0.7331414 -0.4295753 -0.021653958 0.10999251 0.11072216 -0.08978046 -0.25163144 0.06593013 0.5652636 -0.15830564 0.6416133 -0.12727411 -0.4157373 0.0032271675 -0.6730928 0.11074252 -0.29974338 0.15994449 -0.6263261
99 -0.20122623 0.3856214 -0.27724516 -0.42046115 0.25039536 -0.392108 0.46745622 -0.012231476 -0.80645996 -0.8233585 0.65436906 0.14868566 -0.26197374 -0.9354087 -1.0496031 0.6218341 -0.14577757 -0.73194295 -0.03741161 0.80429333 -0.14981516 -0.0045996034 0.8184247 0.14806767 -0.38680342 -1.0264103 0.2487123 0.26898214 1.2612269 -0.27732953 -0.25509155 0.041242555 0.12631643 0.20851244 -0.17416726 0.04241447 0.7999692 0.029799577 0.5677178 -0.36652696 -0.14077814 -0.3451822 0.28111535 0.10313139 0.7479104 0.13569975 -0.050471887 0.37400255 -0.7660215 0.5921003 -0.6262908 -0.7550208 -0.6583849 -0.0661636 -0.14242879 1.1855263 -0.8778608 -0.28634933 -0.2215714 -1.0450431 -0.014894731 -0.69989455 0.33042 -1.0982754
90 0.13822488 0.104833856 -0.28086394 0.24817035 0.72203374 0.24267095 0.33396932 -0.042243652 -0.46742094 -0.2842892 1.0380238 -0.4562637 -0.2673811 -0.6094824 -0.7300344 0.8424703 -0.6718571 -0.39117438 0.16864121 0.44184202 0.060573123 -0.1581765 0.5718056 6.9816335e-05 -0.29879293 -0.27305716 -0.60384786 0.3488808 0.64956874 0.15172747 0.808578 -0.018601308 0.27785504 0.5471611 -0.43786275 -0.0598455 1.029133 -0.19049366 0.24091646 -0.6197369 -0.20542192 -0.10716079 0.61678326 -0.16744953 1.0930622 -0.042871207 -0.2617356 -0.04603611 -0.21946087 0.8681419 -0.24085286 -0.73087776 -0.41033876 -0.10079436 0.7000551 0.32389367 -0.30995 -0.16254313 -0.22146498 -0.51895994 -0.15412392 -0.7466134 0.72172153 -1.190715
